2823 64
469084068 -0.7499895 -0.034710366 0.2686231 0.072134614 -0.051607084 -0.10888782 -0.13547929 -0.37908623 -0.25901628 -0.53664505 -0.6420006 0.420243 -0.20336783 -0.17667964 -0.41846567 -0.24093603 -0.53488743 -0.3640594 0.009678699 0.025103994 0.028197467 0.024173046 -0.24298717 0.052177303 0.17108628 -0.30574906 -0.5611951 0.33259794 0.196563 0.73476344 0.097646154 -0.27846545 0.56968 -1.0603712 0.75680554 0.24742293 0.4114676 0.088499635 -0.036658917 -0.09997996 -0.62690353 0.9800085 0.14184415 0.52099967 -0.044326097 -1.1975256 -0.48081297 -0.37555847 -0.22754394 0.1450886 -0.00914667 -0.2635317 -0.29512635 0.37379548 0.5053962 0.23327442 0.3936918 -0.67096597 -0.60799825 0.629368 -1.4339483 -1.1917512 0.16984434 -1.6303753
9840481002 -0.07735746 0.6396322 0.05682909 -0.025718002 0.39638972 -0.03219858 0.067212716 0.25598204 -0.40301928 -0.85224146 0.40631434 0.5521349 0.53071815 -1.6162571 0.2594661 0.44286054 -0.8827026 -0.21243373 -0.020224012 0.68083096 -0.46267006 0.8684789 -0.62611675 -1.8067518 -0.74534404 0.36511087 0.39899874 0.5387527 0.38198125 0.2923462 0.02553532 1.1542199 0.39660367 -0.86282384 -0.040379066 0.599258 -0.9857136 0.4586727 -0.0029308312 0.2593592 0.41476473 0.20922701 0.23767012 0.43680388 0.5709508 -0.34189174 -0.22366127 -1.48212 -0.07989462 0.6109653 0.28060016 0.8310092 0.44491944 0.5589259 0.037907008 0.3294995 1.4585651 -0.8094652 0.78239274 0.13309145 -0.4249137 -0.14922304 -0.35980916 -1.2464666
10296008988 -0.06946939 0.34656167 0.6290636 -0.21106035 0.31094414 -1.4273484 -0.5928528 -0.42698652 0.77656585 -0.2980726 0.22431858 0.6902521 0.25895914 -0.8102854 0.35554993 -0.37358308 -0.4643415 0.9628938 0.18546179 0.25262293 0.5180061 0.86418587 -0.0476006 -1.1480095 -0.84409994 0.75670016 -0.6661256 0.74273276 0.40960392 0.22244316 -0.5308011 0.23392671 -0.21509965 -0.007570859 -0.2375488 0.018477922 1.1163169 0.78578466 -0.6716993 0.14028706 0.8604326 0.8765388 -0.1847901 0.045240667 0.44194466 0.4096884 -0.23955183 -0.27868348 0.13775282 -0.0033707265 0.39834908 -0.18889037 -0.96168864 0.5993543 0.31769726 0.68052757 0.69348377 -0.69046897 -0.5605124 0.38259536 -0.7778099 -0.46979433 0.023559945 -0.8481267
445989107 -0.444014 -0.22124441 -0.18702208 0.17217778 0.2702325 -0.295274 -0.71202135 0.28273162 -0.3981611 0.47218433 0.33902994 -0.1277843 0.9158131 -0.32840773 0.36301607 0.33417037 -0.7967326 0.24356936 0.21483506 0.29237628 0.7032118 -0.027195776 0.55444944 -1.3248836 0.03488309 0.27302685 -0.9846181 0.29913703 -0.1824522 -0.2532245 -0.7111514 -0.32493186 0.23814127 -0.7595223 0.037632935 0.39747465 0.34287727 0.21739388 -0.5324906 0.11594074 0.13967742 0.5953546 -0.092731796 -0.15301329 0.2926266 -0.7595183 -0.45501986 -1.3110199 -0.49403453 0.41338417 0.80257034 1.1137937 -0.064755596 -0.40424648 -1.0415835 0.625306 0.8413205 -0.1778222 -0.65575033 0.32135263 -0.9039406 -0.06214931 -0.049643375 -1.2184718
5406225461 -0.45501244 0.007846165 -0.25126868 -0.34815812 0.30277565 -0.8729201 0.12843749 -0.513384 0.25993678 0.44319478 0.6546761 1.291855 -0.38428405 0.16649576 0.62581736 -0.04470195 -0.5485969 0.01668041 -0.40407255 0.312998 1.2204108 0.006930094 -0.8955889 -1.0678941 -1.1980833 0.056032714 -0.8030673 0.65181893 0.2824393 0.017702103 -0.60929847 0.016218938 0.7568781 -0.054847866 0.1362698 0.84026974 0.90848875 0.019560464 -0.7073184 0.17625308 1.1680516 1.168093 0.9782567 0.34498516 -0.20662895 -0.046035238 -0.30373386 -0.73563987 0.086155795 0.0074566132 0.9533653 0.35659733 -0.44810736 0.098601505 0.23289332 1.2011939 0.38373134 -1.5393606 0.42841384 0.3781047 -0.21697743 -0.10304618 -0.38728118 -0.76279575
1772230346 0.24646696 0.34684274 0.6011076 0.7129192 -0.42657518 -0.041824825 -0.24506553 -0.8304911 -1.1999732 -0.71121836 0.455758 -0.33161342 -0.10890212 -0.6350533 -0.15037566 0.53468555 0.04461057 -0.47935185 0.3613685 0.3740597 -0.56442356 0.36738172 0.4467062 -1.129034 -0.4043812 1.2953376 -0.28773662 -0.044982873 0.1412392 0.17393659 0.05500607 -0.03439104 1.3832346 -0.26134554 0.37966555 0.82935745 0.24675564 -0.17366786 -0.25307992 0.08219135 0.040406723 0.3628521 0.36035806 -0.20423488 0.4222524 -0.14439766 -0.35753953 -0.26504833 0.24853447 0.01846829 0.47088534 0.22841087 -0.32328802 0.5552618 -0.32751524 0.7817129 -0.006887765 -0.77350765 -0.72251195 0.5587017 -0.6694882 -0.0016834805 0.65927374 -0.65984464
9845790725 -0.74878573 0.06064171 0.5045285 -0.6297482 0.49622098 -0.8821369 -0.3441578 -0.25159895 -0.5058461 -0.2443664 0.5571902 0.8693978 0.7302792 -1.5092032 -0.29968524 0.15989026 -0.41044652 -0.6982442 -0.30441907 0.7043346 0.2344991 0.6508785 -0.021458551 -0.96075374 -0.2805292 0.5669559 -0.7807358 0.10440541 -1.1334407 0.15622433 0.2779873 0.75340694 0.19693823 0.10251972 0.57462555 -0.23350744 -0.28941002 0.31986165 -0.36922148 0.107977346 0.011104224 0.06675395 -0.19874194 0.47676197 0.112695225 0.2689702 -0.41791305 0.10906264 -0.84741604 0.028518409 -0.070154466 -0.12526728 -1.052967 -0.36914825 -0.65649915 0.96860856 0.91348976 -0.67458653 0.011642277 -0.19222513 -1.2317779 -0.6925984 0.48095328 -0.12018006
8921960717 1.0227381 -0.42490748 0.18069264 0.1064312 0.32844833 -0.6688625 -0.13864397 -0.50680643 -1.441175 -0.22283044 -0.08878419 -0.4087492 0.11509078 -0.5152844 0.3599154 -0.11502897 -1.4282389 -0.49392492 0.076418415 0.93872076 0.23392116 0.41356626 -0.97066706 -0.67041874 -0.21986711 0.5448011 -1.014251 1.1005876 0.32949913 0.68368286 0.5856083 0.18032965 -0.16415246 -0.45284808 0.6224694 -0.50615996 -0.71493566 0.3857986 -0.1803901 0.06603786 -0.47677368 -0.16155161 0.55337507 -0.08555683 0.19637883 -0.057471246 -0.6006154 -0.4543082 0.7024284 0.17377302 0.44745705 0.040289108 -0.81442714 0.28177616 0.0007361688 0.0447889 -0.103261314 -0.4782214 -0.039723825 1.1323429 -1.5358818 -0.5743973 0.37696785 -0.0794051
12777137785 -0.08885383 0.6021508 0.9546481 -0.8109259 0.24037181 0.23957473 0.015268642 -0.7176884 -0.013415265 -0.57575625 1.5605755 0.76549864 -0.17176718 0.19081946 -0.097964175 -0.37561834 -0.3974888 -0.033375602 0.27752125 0.27140784 0.049165666 -0.9020761 -0.32932696 -0.34794766 -0.24048945 -0.06928466 0.22928467 0.5898553 -0.06898113 -0.008685149 -0.84410685 0.71724725 0.3053939 -0.49859273 0.88871527 0.5981675 -0.8103134 -0.22549139 -0.84286034 0.83511585 0.8987407 0.92758536 -0.2029445 -0.23614922 0.7822914 -0.32430035 -0.32278407 -0.92508256 -0.35058162 0.13981035 0.215206 -0.34952044 -0.43144262 -0.27574998 0.33998266 1.2548728 0.6110275 -1.1150665 0.38761267 0.63222 -0.2876819 -0.01633198 0.5745364 -0.74371755
10295715282 -0.6024363 0.33058375 0.122873776 -0.02320241 0.5217088 -0.769958 -0.20345305 -0.8830199 0.5443518 -0.69854677 0.07703252 0.3367027 -0.28535262 -0.3973193 1.4709063 0.7966253 -1.5523427 -0.5865368 0.4885127 0.19734377 -0.111206904 -0.42563984 -0.05834621 -0.99758273 -0.12756412 -0.49161083 0.27862677 0.1642818 -0.11040212 -0.28854257 -0.4158999 0.029913388 -0.21521086 -0.61003625 -0.1196852 0.017838184 0.024936032 1.0863053 -1.0407565 -0.31863394 0.5110028 1.4086381 -0.025850998 -0.09222324 -0.24107853 -0.48209217 -0.060774636 -0.5537162 0.07934823 0.22258626 0.11471978 -0.22770065 -0.33949867 0.4176412 0.03875137 1.2970428 0.5922138 -0.95230985 -0.4351392 0.4519407 -1.0959824 -0.71898377 -0.014011328 -0.41024542
768264666 -0.0040514003 0.23505361 1.0452678 -0.17602074 0.13741907 -0.28955045 0.93331444 -0.6620576 -0.83457506 -0.20230943 0.16716799 -0.6274206 0.19149584 -0.3883567 -0.20678093 -0.078121096 -0.33502308 0.25329694 0.3331823 -0.10780994 0.00979355 0.1478672 -0.45826244 -0.69704145 0.3924936 0.15667674 -1.0938876 0.5615515 0.13752452 -0.16893367 -0.08582696 0.5705459 -0.27563986 -0.44724014 0.8447236 -0.2352386 0.79727566 0.41521627 -0.8544546 0.8502503 0.70947343 0.61635095 0.5783104 0.21342246 0.27366847 -0.5505943 -0.041446578 -0.6355884 -1.3203844 -0.049593322 0.18246137 -0.12154222 -0.031755652 0.43507665 -0.14324987 0.3177979 0.1295652 -0.15862907 -0.3143617 0.6912329 -0.8679104 -0.580841 0.5993835 0.11631159
10296008985 -0.05874989 0.2385067 0.5130377 -0.32930905 0.2613534 -1.4984934 -0.5449995 -0.4456868 0.6644732 -0.3171916 0.07369679 0.7796467 -0.0040349197 -0.33352363 0.45289072 -0.15635017 -0.3244546 0.56338966 0.10481031 0.053592 0.43232635 0.6944063 -0.31501973 -0.894445 -0.98385155 0.7479067 -0.5284741 0.65291333 0.20197217 0.14068602 -0.6246599 0.029109241 0.022402018 -0.096130274 -0.34252647 0.19325817 1.1243799 0.69849366 -0.73636144 0.43049657 0.9568393 0.83913535 0.09203016 -0.07839527 0.0086577665 0.23611175 -0.0645486 -0.29091227 0.22440024 0.008033212 0.14366952 -0.045711208 -0.80175984 0.8053576 0.27947107 0.8793075 0.883539 -0.69258815 -0.6465023 0.34215653 -0.8616137 -0.530477 -0.11499447 -0.83439827
9880108316 -0.16230033 -0.00749721 0.23459114 -0.0036559498 0.56009793 -0.52108175 -0.17630462 0.3342762 -0.56757385 -0.6275042 0.24106136 0.12407149 0.68226683 -0.22258748 0.13506281 0.50064737 -0.22698335 -0.19252184 -0.28471574 0.83202344 0.113699526 -0.23588452 0.46518546 -0.92004746 -1.1143677 0.8503848 0.062200855 0.16827722 -0.1440967 0.11888979 -0.38395423 0.63988096 -0.3757057 -0.023572093 0.70177567 0.77303594 0.6555423 1.543331 -0.58028495 -0.3043596 -0.07597038 0.755397 0.06076257 0.15388688 0.87798023 0.05186448 -0.22859782 -0.91988564 0.076274425 0.1296684 0.04693183 0.51955193 0.1921936 -0.18861438 0.15465811 0.55331063 0.11434826 0.5728027 -0.045387942 -0.528277 -1.135281 -0.6771233 1.6534845 -0.8342607
9880108306 -0.061632052 0.592302 0.2899135 -0.010363998 0.10435223 -0.53799474 -0.057076562 -0.0316418 -0.71318245 -0.9963479 0.39123094 0.14876783 0.69370854 -0.42091972 0.08347323 0.19679616 -0.5876542 0.02392149 -0.12059489 0.8077661 0.29495856 -0.41187936 0.23491131 -0.9079716 -0.45935845 0.62162256 -0.40121478 0.09794023 -0.2434521 0.23045202 -0.012830862 0.90254766 -0.42062977 0.23459075 0.20201679 1.2420313 0.6983142 1.5666921 -0.70595014 -0.16295044 -0.10831576 1.0021523 -0.15502682 0.025761241 0.2782764 -0.037913095 -0.31438407 -0.84792435 -0.152682 -0.18965144 -0.029923592 0.507381 0.78004396 0.15853415 -0.035940766 0.5421007 -0.042058434 0.5168818 -0.30564862 -0.11309174 -0.8688941 -1.1014254 1.7350175 -0.7970938
9880108308 -0.1568986 0.50689614 0.34137288 -0.13132414 0.2248525 -0.5352377 0.03925447 0.292093 -0.5465769 -0.8471386 0.3500594 0.0144783165 0.7584022 -0.3373471 -0.01671898 0.52181196 -0.26323432 0.07671351 -0.23258744 0.6778687 -0.06587486 -0.30502778 0.38326198 -0.9638301 -0.6501916 0.6050635 -0.2089594 0.11228328 -0.2565785 -0.0028144615 -0.3209974 0.7642443 -0.2801464 0.122306995 0.5095025 0.875468 0.61124074 1.5799276 -0.79752105 -0.21953584 -0.18000533 0.96611524 -0.10388409 0.17210007 0.6248735 -0.10445487 -0.23266669 -0.67066264 0.09787769 -0.03441846 0.042893462 0.59805804 0.41809586 0.14972553 0.18738905 0.67278945 0.12489694 0.61386573 -0.27616087 -0.33557463 -0.9816803 -0.842652 1.7368482 -0.8661184
12777137779 0.08886789 0.94333255 1.160027 -0.6784101 0.41713884 -0.015043983 -0.08929713 -1.14186 -0.08363905 -0.69271433 0.92408633 0.8476649 -0.14911099 0.17061831 -0.091776885 -0.184178 -0.09340497 0.10192362 0.0324408 -0.16731869 0.37674403 -0.9668338 -0.015779387 -0.5012633 -0.5536791 -0.2809852 -0.24740148 0.68582284 -0.15730168 0.042826448 -1.0843438 0.6728247 0.11152224 -0.7199959 0.9333072 0.66434544 -1.1722927 0.04037498 -0.48345926 0.44079688 0.6327038 0.78171325 -0.11796079 -0.36831504 0.6285975 -0.19391994 -0.15650235 -0.6337742 -0.63714063 0.19162287 0.4816324 -0.32838976 -0.45960203 -0.25445247 0.16269408 1.0889057 0.40440324 -0.79371905 0.38564312 0.390136 -0.20641848 -0.32124105 0.77724206 -0.87919086
7180469569 -0.3476448 0.5248932 0.2343652 -0.557354 0.59451056 -0.111654766 0.3292638 -0.6980215 -0.19879878 0.038857974 0.23635124 0.8928053 -0.10817146 -0.09259587 -0.10517845 -0.37894014 -0.2295393 0.07323062 -0.8972486 -0.22737533 -0.26681063 0.24521537 -1.4173801 -1.02395 -0.6471913 0.5204017 -0.17354056 0.41447505 -0.3336619 0.939592 -0.647642 0.48637903 -0.059115447 -0.44001114 -0.14116493 0.40204984 0.0503407 0.506 -1.2829233 0.27576908 -0.5999505 -0.22787885 0.5524494 0.56468016 0.34473494 -0.98084974 -0.41551962 -0.15637028 0.11313801 0.4679866 0.64868903 -0.059507564 -0.0044934135 0.33520564 -0.9816799 0.37351936 -0.39622018 0.25901282 -0.19591285 0.9692794 -0.5062813 -1.0287479 -0.09862106 -0.7167037
12777137782 -0.15249918 0.38203552 0.93018353 -0.6371134 0.26880676 0.17924881 -0.06756745 -0.51059884 0.100735135 -0.8180549 1.5966474 0.6565557 0.16349556 -0.062204745 -0.26395133 -0.3760818 -0.44703215 0.14524925 0.1599525 0.5195089 0.019629326 -0.77231205 -0.20198809 -0.42336956 -0.36899114 -0.1502678 0.2824948 0.3237893 -0.26461974 -0.18526027 -0.6723726 0.7133015 0.23547038 -0.5659274 0.7939818 0.20817274 -0.6984159 -0.088623874 -0.9954673 1.1568896 1.0311705 0.77212286 -0.15267567 -0.15591596 0.8164515 -0.43106997 -0.12974831 -0.96889126 -0.07325213 0.27206087 0.28295597 -0.37770697 -0.42516387 -0.28191933 0.41469222 1.3362732 0.6241445 -0.9828116 0.28867313 0.5594832 -0.535204 0.33787748 0.35924894 -0.6150302
10295715149 -0.21447085 0.42734355 0.10031751 -0.05863596 0.66613436 -0.786188 -0.13038781 -0.77998835 0.37442723 -0.5940287 0.07567947 0.67370325 -0.3592069 -0.14978783 1.3942604 0.9036704 -1.5588764 -0.30156165 0.32517213 -0.00083807955 -0.129872 0.006359632 -0.15836553 -0.9507225 -0.34804672 -0.3684475 0.07689649 -0.081659675 -0.15326285 -0.14172848 -0.5684898 -0.028935922 0.033460423 -0.46785724 -0.09570479 -0.07088766 0.120896794 1.0984954 -1.0074843 -0.4156862 0.41607237 1.3943008 0.2624541 -0.060106695 -0.43890518 -0.3401817 -0.14893654 -0.3192826 -0.08561691 0.24869996 0.15768011 -0.5403738 -0.10444851 0.6218305 -0.16692173 1.0554669 0.6739625 -0.9813366 -0.32711715 0.22789535 -1.1020508 -0.58892876 -0.19721876 -0.4896623
1926667755 -0.35085365 0.10299857 0.17371154 -0.26751378 0.42060676 -1.2009208 -0.432966 -0.3401015 0.37434995 0.0540246 0.10153782 1.1030524 -0.5369566 -0.01574809 0.68993855 0.011046907 -0.6505879 0.08240893 -0.039112415 -0.030495102 0.5159315 0.69613415 -0.265308 -1.0243288 -1.0088063 0.2770656 -0.45840415 0.2000194 0.11202357 0.11140058 -0.42314002 -0.29834706 0.10860203 -0.18446018 -0.26675546 0.3823743 0.50007945 0.54233587 -0.5202979 -0.106514566 1.0017753 1.2330741 0.56931764 0.12032539 -0.15830576 -0.012401051 -0.15080497 -0.4673331 0.25586435 0.13602059 0.37128192 -0.17208187 -0.72100025 0.76469696 0.38973823 1.2732471 0.6107308 -1.0018793 0.03729263 0.17656173 -0.54773283 -0.40674746 -0.11712043 -0.87465554
10266434373 -0.568472 -0.02212044 0.85938585 0.30518767 0.39204213 0.4605372 -0.13219953 -1.0569094 -1.2781633 -0.15755972 0.49412724 -0.19796132 0.41196468 -0.3072539 -0.0020221777 0.2732005 -0.8786147 0.29215792 0.24490893 -0.035505284 -0.08093919 0.9353181 -0.0069965133 -0.24197884 -0.46389106 0.8429518 0.20887624 -0.595526 -0.21413521 0.086664736 -0.6012646 0.38280007 0.54221684 -0.2306582 -0.1978648 0.4723561 0.0135621745 -0.5222385 -0.8949533 0.24388939 -0.13925213 0.94486326 0.14593166 -0.22006193 -0.07237773 -0.6984852 -0.8418406 -0.8988147 1.1032258 0.56817967 0.10918669 0.40127173 -0.206096 0.009929206 -0.051789887 1.0064621 -0.39182547 -0.32818845 -0.7449816 0.48188758 -1.0525861 -0.71018976 0.9391006 -0.5689854
9612266999 0.0051559648 -0.5748287 0.45434052 -0.5266158 0.4211051 -0.09038441 -0.38603705 -0.3197867 -0.3530697 -0.37181988 0.6676358 0.56805724 0.52305645 -0.23849966 -0.35174957 0.39126125 -0.5516185 0.048264217 0.1390678 0.98140407 0.1648031 0.7591776 -0.43395877 -0.41042203 -0.7018807 0.79524755 -0.1151408 0.14038935 -0.25894856 0.35708618 0.6808612 1.2477074 0.4027671 -0.11575757 1.1549666 -0.41083893 0.6361397 0.6704944 -0.12527102 0.6753333 -0.13710396 0.5784404 0.8281699 0.7247544 -0.07288202 -0.5508046 0.1540099 -0.36668912 0.22455627 0.5687917 0.2698424 -0.020323332 -1.0340831 -0.91584593 0.18537848 1.2161076 1.0917901 -0.57251495 -0.55650276 0.039096136 -0.1359085 -0.53427345 0.8553066 0.30279508
10768068864 -0.0021427865 -0.4916176 0.49290907 -0.8189089 0.13866183 -0.14604065 -0.23915596 -0.35218605 -0.42017114 -0.10212464 0.88644606 0.6862225 0.8332778 -0.4161151 -0.36579475 -0.0154687585 -0.6763358 -0.14985208 0.16870059 0.89603907 0.25374538 0.50835353 -0.46760333 -0.49430734 -0.6253983 0.6674876 0.051063213 -0.09912047 -0.56135577 0.24923396 0.35173544 1.2079148 0.49889094 0.102983326 0.85834324 -0.47323757 0.54919183 0.5705572 -0.23053816 0.6370867 0.047912773 0.6797968 0.71285737 0.57353014 0.085703164 -0.5108221 0.099142894 -0.109568685 -0.022079447 0.4476399 0.13742155 0.02739013 -0.9371801 -1.0656853 0.3833575 1.3408893 1.1451768 -0.46997067 -0.44220227 -0.08953255 -0.44657597 -0.53359526 0.5321752 0.12772259
13041963758 0.025562007 0.00050279783 0.28284025 -0.7758154 0.49101514 -0.4815016 -0.5086128 -0.13948011 -0.5756498 -0.13621445 0.8629132 0.4131533 1.0402861 -0.6340709 -0.26305673 -0.031093583 -0.58844453 -0.5746343 0.01253389 1.0925024 0.13400961 0.5649471 -0.25308627 -0.7421151 -0.6214839 0.7294242 -0.3984634 -0.079636626 -0.90324324 0.40564448 0.40357617 0.8137112 0.5290397 0.29030994 0.4856698 -0.47430006 0.05840643 0.6091291 -0.57461536 0.42694765 0.0021501782 0.65848047 -0.016776105 0.6028792 0.22431275 -0.12431822 -0.057022136 -0.18239671 -0.39852622 0.24399869 -0.2744157 0.09896265 -0.91514283 -0.924288 0.02569973 1.4285594 1.2014376 -0.91450393 -0.20799693 0.060810268 -0.7268768 -0.2656068 0.44521368 0.3453962
7179588699 0.8791278 0.3075926 0.03282105 -0.32267767 0.7001897 -0.3889165 -0.83441615 -0.7098853 -0.698625 -0.56078464 0.4924296 0.6945608 -0.040987335 -0.92826647 -0.019145774 -0.087458774 -0.41664645 -0.12704135 -0.94206804 0.7940578 0.19131456 -0.7071655 0.2742553 -0.5106739 0.4944561 0.37111512 -1.0472407 0.3441849 -0.30383292 0.15712197 -1.1332456 0.16792993 0.4710087 0.17087114 -0.45378402 -0.20100585 0.97683257 -0.18347844 -0.6479913 0.664726 -0.2835842 -0.1599002 1.0316713 0.2617287 -0.04878194 0.025375968 -0.9399182 -0.29004008 0.0056199883 0.36318952 -0.26616448 0.5209914 -0.091189206 0.324968 0.054064166 0.1274244 0.21462478 -1.0757008 -0.13577998 0.38101205 -0.88585883 -0.9613508 0.40308216 -0.88990754
10266434377 -0.35216326 0.047992073 0.75727797 0.41116503 0.20601375 0.120444834 -0.20040348 -1.0714442 -1.2422957 -0.105348036 0.7489476 -0.19094811 -0.1131279 -0.3634377 -0.32659763 0.4924488 -1.3007895 -0.22525588 -0.05591053 -0.3470507 0.3868926 0.8579912 0.06502656 0.102348156 -0.71963453 0.72621334 0.14570755 -0.62341726 -0.06860097 -0.21019825 -0.3612689 -0.017590187 0.4677958 -0.38566995 0.09478965 0.41539156 -0.1406639 -0.18095875 -0.6515554 0.44955498 0.11645584 0.5489775 -0.028041864 -0.32764626 0.0017077242 -0.23283093 -0.9677315 -0.69041574 0.5700775 0.7143633 -0.47890013 -0.048090164 -0.382522 -0.30480027 0.09239244 1.2429738 -0.27144715 -0.72855574 -0.38226405 1.0030369 -1.119228 -0.61715204 1.1103985 -0.8603559
12726972388 0.15044026 0.4600143 0.19034216 -0.29962456 0.840054 0.048304655 -0.11813586 -0.05647517 -0.523257 -0.1865163 0.23630548 -0.52826643 0.3992543 -1.3663526 1.1466141 0.70662606 -0.09469058 -0.112502284 -0.92657715 0.29375625 -0.25276822 0.19563434 -0.24155362 -0.97777843 -0.39850345 0.09093231 -0.19582382 0.8211181 -0.10261259 0.7885176 -0.14947082 0.8791316 -0.3827372 -0.5854526 -0.533306 0.33830798 0.005470647 0.47815028 -0.15836826 0.16684125 -0.10765129 0.12860197 0.16092834 0.23121724 -0.86127675 -0.1614235 -0.18108805 -1.1410681 0.51699835 -0.13387978 0.5880934 -0.8006008 -0.78097975 0.035244823 0.52835375 -0.67122644 0.0617361 -0.7449627 -0.5799074 0.277742 -1.2169882 -0.7904105 0.64662385 -1.3679663
3335554174 0.7468298 0.18693915 0.5782941 -0.24318354 0.38088852 -0.94401544 0.21997152 -0.831792 -0.7569141 -0.44104978 0.36344835 0.5437707 0.10367261 -0.9542771 0.697148 0.40153173 -0.2338347 -0.28604215 -0.9332193 0.8136307 -0.07748858 -0.189086 -0.071813956 -0.2507384 0.68924093 0.20521723 0.051112767 0.077490255 -0.15101653 0.0070217466 -0.8333562 0.5437531 0.4299965 0.06472437 -0.48563826 0.04849458 0.8454659 -0.26061395 -0.27984548 1.0527887 -0.20745224 0.3526674 1.2800997 0.44280326 0.60420644 0.015836293 -0.62948173 -0.13235772 0.26772302 0.42726988 0.46500605 0.58394223 -0.35907432 0.8778204 0.70577335 0.5646832 -0.015554359 -0.40460822 0.44331875 0.45256186 -0.54091316 -0.9464492 0.51352406 -0.9555619
7180458200 -0.06143826 0.67912114 0.18305355 -0.45547608 0.63173336 0.117363885 0.41126502 -0.98462075 0.3054724 -0.15942898 0.36504975 -0.38098642 0.6268826 -0.52172863 0.5313782 1.0205326 -0.81239736 -1.1172309 0.31218088 0.54029363 0.25112164 0.75263137 -0.12466099 -0.624352 -0.8130026 0.27458715 -0.37074766 0.87529856 -0.38159457 0.4514973 -0.5040838 0.3223555 0.88242435 0.59165704 0.21777056 0.046926588 0.80474913 0.7957977 -0.27051324 0.587122 -0.6684859 0.3955335 0.41280442 -0.40659904 -0.25750512 0.06708437 -0.9786585 -0.7426659 0.6579147 -0.10995762 1.1898912 -0.118969 -0.19300981 0.21986805 0.2372896 0.5971504 0.9867102 -0.42988414 0.52486885 0.21330954 0.30796844 -0.58629227 0.41277972 -0.85066044
5935081762 0.31180072 0.107517794 0.33796227 0.2873929 0.36675927 0.2585634 -0.119909026 -1.2400187 -0.8191381 0.18260708 0.12156347 0.3019869 -0.2267353 -0.6918384 0.3672445 0.27363238 -0.06312197 0.014213466 0.24418718 -0.1356932 -0.6253842 0.7295542 -0.35718215 -0.3300294 -0.769013 0.7498518 -0.013401349 1.0081068 0.04649706 0.11175099 -0.10261706 0.54034233 1.2713457 -1.2448962 0.3899732 -0.84167594 0.11541832 0.13770689 -0.9139222 0.6918742 0.094145685 0.6050456 0.24496466 -0.5058552 0.25350842 -0.10923328 0.10206409 -0.2579229 0.057965543 0.48447183 -0.36776057 0.45252427 -0.652768 -0.85369116 -0.25143522 0.25789148 0.25467348 -1.1039277 0.08684898 0.66059023 -0.10947198 -1.0807551 0.63948506 -1.5145532
10266434382 -0.0061259517 0.17328319 0.26552898 0.42897272 0.06420488 0.10885375 -0.41249785 -1.5069531 -1.0677941 -0.094451904 0.661236 0.05033227 -0.16120087 -0.7946535 -0.19241972 0.6706095 -0.9569823 0.05298448 -0.20969506 -0.28869203 -0.18566354 1.0800902 0.068377994 -0.13316178 -1.0844768 0.69830835 0.09800294 -0.34981197 0.00643031 -0.20557162 -0.14793417 -0.17443249 0.6244911 -0.6892523 0.34617895 0.20495057 -0.356705 0.19554947 -0.48758677 0.74405193 0.08447964 0.6915515 0.15180904 -0.5252363 -0.108118296 0.2073457 -0.5705245 -0.39656848 0.25584996 0.60224795 -0.76370347 0.10190716 -0.18922424 -0.47042084 -0.086467005 0.7928531 0.1355141 -0.71687746 -0.027757742 0.9227382 -0.9802401 -0.44886446 1.0862372 -1.2391899
10295715290 -0.18303947 0.062060125 0.35890177 0.006804148 0.4849539 -1.4094425 -0.51358527 -0.37552652 0.5468749 -0.07052546 0.049623344 0.8660603 -0.2764021 -0.07353685 0.7002662 0.045974728 -0.41582176 0.5314495 0.11704368 0.015406164 0.5882085 0.9031066 -0.4070712 -0.99177825 -0.85319626 0.38176677 -0.42613903 0.37760663 0.060017947 0.3206318 -0.40909746 -0.19221295 0.09641948 -0.17883515 -0.26129296 0.26237428 0.6626223 0.79494965 -0.66738373 -0.017565126 0.91660905 1.0599189 0.33200735 -0.026732884 -0.105401896 0.22427964 0.048066936 -0.42407185 0.2890873 0.10100684 0.122049525 -0.104768455 -0.60940397 0.8053669 0.22559708 0.9277256 0.45477986 -0.80546397 -0.33161956 0.49363166 -0.6351694 -0.38538742 -0.15060557 -1.1374468
10285438403 0.17166029 -0.41632023 0.06388435 0.122332506 0.9550793 -0.9064866 -0.47149757 -0.6133828 -0.88886994 -0.3994738 0.5231147 0.2639552 -0.076367564 -0.102313116 0.6243646 -0.2447604 0.3124864 -0.13557865 -0.0050756037 -0.08586259 -0.059712946 0.9012863 -0.6684256 -0.50441056 -0.71024334 0.8168262 0.12180737 0.5798399 -1.091656 0.6363864 -0.3568769 -0.32715237 0.43099055 0.056391094 0.20890951 0.28811714 0.29057983 0.50896513 -0.91438293 0.03408995 0.063583106 1.0049673 -0.023773815 -0.26838183 -0.13234356 0.28387615 0.5288339 -1.0010926 0.49711028 0.65007037 -0.5822248 0.40063035 -0.48814926 0.11470614 0.50053984 0.5593781 -0.06913562 -0.09777554 -0.29197297 0.6881813 -0.95317286 -0.5168499 0.71819156 -1.7749987
13015886740 0.24769868 0.5624505 0.24156912 -0.35061812 0.21931113 -0.82148093 -0.15335386 -0.5281235 0.45127097 -0.9147584 0.5723232 0.40813723 0.42921904 0.032939702 -0.255823 -0.24730796 0.23623197 -0.14832623 -0.042218547 0.15218057 0.1396512 -0.3855357 0.7025111 -1.7313017 -0.28922608 -0.23587063 -0.33664277 -0.24048291 -0.4785552 0.20401016 -0.3449464 1.2513996 0.44581446 -0.581126 0.75953716 0.4255019 -0.24430512 0.30322295 -0.46788308 0.9715811 -0.695993 0.3715579 0.0277586 -0.46623272 0.4519468 -0.12785116 0.037988577 -1.5492991 -0.17708884 0.7458417 -0.30839235 0.089826405 -0.60090196 -0.27515638 0.72672164 0.9462121 0.1558684 -0.84689724 -0.092183985 0.45395178 -1.0821285 -0.07679765 0.11031926 -0.7258108
10266434354 -0.06190927 -0.30330524 1.2586341 -0.2527179 0.227637 -0.4073915 -0.3661856 -0.69091094 -0.52813154 -0.14141846 1.0396737 -0.35840973 -0.1637996 -0.31828856 0.008470106 -0.028419634 -1.152533 0.23027445 0.53827894 0.5514682 0.6822281 0.46586663 -0.19957429 -0.7472513 -0.028700957 0.97224945 -0.4233806 0.54836226 -0.704902 -0.26417974 -1.1456321 1.0588167 -0.073856354 -0.67125326 -0.5300289 0.30599993 0.32463366 0.18747301 -0.60648996 -0.14012545 -0.85171115 0.043551993 0.29785 0.3643882 -0.22414044 0.1032 -0.49015802 -0.027401257 0.13730915 0.75482893 0.68612784 -0.46553475 -0.5676433 0.0020680043 -0.21584465 0.40687138 -1.1745642 -0.33647802 -0.41053182 0.6389427 -0.40097082 -0.20182933 1.0176584 -0.7484508
7179630170 0.0004770293 -0.27595872 0.18533924 -0.7265268 -0.23037812 -0.86861175 0.24276444 -0.5156494 -0.40645096 -0.05721181 0.49223718 -0.14605542 -0.34732443 0.36689422 -0.0801018 0.3733121 -1.1488103 -0.23807096 -0.5490358 -0.26631427 -0.63887364 -0.30826017 -0.75831205 -0.05202219 -0.08783361 -0.052078802 -0.3854867 0.9914625 -0.06615559 0.95471275 -0.08356527 0.17851736 -0.5214416 -0.23960736 -0.102917336 0.43633154 0.25091687 -0.07887616 -0.60305095 1.0850594 -0.39219874 0.9588105 -0.28944468 -0.3866943 -0.19517365 0.29507416 0.12612434 -0.52189475 0.31888223 0.21474862 0.5817025 0.48584998 -0.33780286 -0.6679035 -0.6056059 0.18493791 0.18547644 -0.873353 -0.051108837 0.2405721 -1.1153938 -1.2366863 1.1824057 -0.7419427
10285438400 0.09940772 -0.27124977 0.16909374 0.35176855 0.8202068 -1.0948206 -0.68122435 -0.36561474 -0.54748523 -0.28625843 0.7615615 0.5624038 -0.0314601 -0.33259767 0.7062451 -0.1690303 0.1823009 -0.061599858 0.036599323 -0.3773144 -0.09907897 1.030885 -0.73879075 -1.0054407 -0.6659204 0.45693246 -0.15259524 0.5934974 -0.9662871 0.54485166 -0.35223952 -0.4009092 0.38883594 0.094594516 -0.07958454 0.23839568 0.41516584 0.42872518 -1.0335567 -0.15221493 0.0675716 0.8921474 0.051128402 -0.21012628 -0.2992528 0.12005924 0.4507093 -0.9008217 0.58426934 0.3575618 -0.40430135 0.3893604 -0.12023856 0.4561581 0.57581085 0.89021266 0.1656185 -0.11868865 -0.16371444 0.79765975 -0.7224058 -0.31729206 0.54869765 -1.7212831
10266434400 -0.004246331 0.12854879 0.39110497 0.45159793 0.38149726 0.13629046 -0.21941642 -1.2626792 -1.1460782 -0.031025704 0.29862136 0.17080893 -0.414345 -0.89303666 0.3653522 0.49331805 -0.40192562 0.24580778 0.16469091 0.16010559 -0.7568464 1.0672659 0.1685321 -0.3448987 -1.4042138 0.7348339 -0.08740245 0.41366097 0.19835857 0.25263017 -0.43051532 0.30910912 0.9153443 -0.6747846 0.19125852 -0.24362431 -0.46502855 0.16398166 -0.7234097 0.6293579 0.2235958 0.6753686 0.3405635 -0.43961552 0.36169606 0.11674007 -0.073336005 -0.25131148 -0.02368106 0.9444786 -0.55400807 0.17758979 -0.34450904 -0.45298955 -0.34242752 0.99258107 -0.19736649 -0.56495696 0.0998697 0.58215743 -0.37612477 -0.79993105 1.1259842 -0.8775574
5538555497 0.08415418 0.732774 0.7397527 -0.5412118 0.4173186 -1.1071157 0.012486984 -0.7946333 -0.87132806 0.32064614 1.0370464 0.17973529 0.30915838 -0.7988275 0.6200053 -0.27311406 -0.16055684 -0.75926495 0.14098988 0.8139925 0.30890816 -0.25696495 -0.23896329 -0.43687654 0.2013019 1.1865702 0.6018464 1.128039 0.55865777 -0.30371028 -0.26219824 0.7228527 0.062732846 -0.2099525 -0.37841982 -0.4766729 0.39595374 0.88028055 -1.389177 -0.5148462 -0.20924377 0.4507332 0.4780921 0.99745107 0.17518689 0.21289326 -0.18249032 -1.1171768 0.3023784 0.6641897 0.44398582 0.7471087 -0.43962273 -0.4154277 -0.65395993 0.91850847 0.9426127 0.060879078 -0.48587 -0.33167514 -0.14357907 -1.3665322 0.35213825 -1.0294598
5538555044 0.17840818 0.3994809 0.5072268 -0.9667531 0.7138155 0.3001243 -0.018476257 -0.38943374 -0.22088589 -0.40257284 0.37591523 -0.17685232 0.3162443 -1.4309239 0.5861076 0.6392145 0.083459176 -0.15527976 -0.71183026 0.5173062 0.09022571 0.1715448 -0.26166996 -0.9389551 -0.6020621 -0.1823908 -0.314355 0.70235014 0.38633367 0.78033507 -0.13385624 0.8469031 -0.23922731 0.028576998 -0.30467567 0.09748505 -0.26107225 0.1366564 -0.30732048 0.22844882 -0.29952055 0.22366564 0.085928895 -0.010516903 -1.0287822 0.098109536 0.1902463 -0.7975072 0.2702251 0.11212622 0.19751436 -0.66822135 -0.26660693 0.03362184 0.3599669 -0.36925068 0.16944197 -0.7287097 -0.71300995 0.24079545 -1.5503765 -0.4220912 0.19281688 -1.3875972
10266434403 -0.01735073 0.21390796 0.436334 0.13619043 0.28771332 0.20897752 -0.087697886 -1.4927149 -0.9440769 0.04003435 0.029356327 0.16876966 -0.4456376 -0.96449625 0.23232165 0.42891175 -0.32730094 0.06731684 0.24629405 -0.077623636 -0.73732644 0.724581 -0.076188385 -0.22215429 -1.2036713 0.664265 0.0059695146 0.7973633 0.1435679 0.16344288 -0.0054555135 0.37955976 1.2095715 -1.0814704 0.10921587 -0.6869413 -0.32825974 0.102224 -0.9498243 0.7472232 -0.018135002 0.45081532 0.4391454 -0.5817508 0.31368968 -0.17074902 -0.17679419 -0.35937 -0.030622885 0.44723922 -0.4318897 0.13142323 -0.5167857 -0.8287997 -0.48912418 0.7008256 0.16863011 -1.0731214 0.17662396 0.362062 -0.23100355 -1.1019925 0.73430926 -1.2696116
10299258508 -0.58442014 0.7152217 0.35984984 -0.14524505 0.26131856 0.071208514 0.3326101 -0.27837524 -0.1361578 -0.05204735 0.20657213 0.33081445 -0.53452265 -0.6489727 0.16826701 0.015257965 0.020139145 -0.38354272 -0.35487604 0.16490214 -0.086761676 -0.23540589 -0.26446173 -1.4399288 0.2563935 -0.09536082 -0.9623252 0.7370445 -0.5101295 0.58719933 -0.41987205 0.15583758 0.052025296 -0.36398157 -0.12774265 -0.641701 0.89775765 -0.5505698 -0.8104624 0.22420008 0.4188716 0.9465125 0.5487466 0.6639026 0.4450073 0.061127823 0.28979817 -1.8299733 -0.5237279 -0.27185634 0.55821687 -0.54949135 0.25800195 0.6850318 0.25398675 0.9404485 0.18760826 0.09807631 -0.29303145 1.2730454 -1.4992186 -0.12932654 0.57257277 -0.18168394
10266434351 -0.058164716 -0.31281963 1.4640679 -0.17817108 0.09215907 -0.4560608 -0.40771872 -0.6563067 -0.43222585 -0.023854243 0.62384677 0.046882946 -0.1875662 -0.1297759 0.15658146 0.09915294 -0.8812927 0.004121477 0.6116853 0.34639737 0.577307 0.2214714 -0.2540439 -0.7090805 0.29067758 0.8248725 -0.4122221 0.7345205 -0.66464424 -0.39251795 -1.006846 1.0682374 -0.17642996 -0.8714632 -0.2189406 0.4238897 0.54921556 0.3671524 -0.76268923 -0.26930812 -0.437332 -0.18376897 0.08109457 0.47035247 -0.32959616 0.21124978 -0.5831446 -0.06718781 0.0029610319 0.4283542 0.69903255 -0.47762224 -0.5111994 -0.20140924 -0.27257589 0.49184775 -1.1206067 -0.5995741 -0.46196577 0.7157759 -0.36105388 0.043290112 1.0052528 -0.7995684
5390733114 0.32848063 -0.09941434 0.57428586 -0.32031125 1.4202911 -0.28337762 0.085416995 -0.39676806 -0.47935024 -0.098062485 -0.5320122 0.7214949 -0.2520305 -0.16041493 0.18190731 0.7928241 -0.37903428 -0.32975444 -0.6758609 1.2175612 0.56239516 -0.3151543 -0.5248796 -1.2192328 -0.2852664 -1.0959042 -0.25489274 0.12452928 -0.20135812 0.19109808 -0.29222253 0.10235245 0.93910843 -0.55838346 0.6577624 0.49986216 0.16925842 0.6344492 -0.25155786 0.45353138 -0.5476204 -0.23923773 -0.28031388 1.0834864 1.1482254 0.23813829 -0.41722566 -0.9574441 -0.29788396 0.37381452 0.2599075 0.19902253 0.37466818 0.5608579 -0.30193886 0.9036795 0.19220646 -0.12800872 -0.45259327 0.14631611 -0.5529919 0.28230566 0.64222175 -0.6410335
445989099 0.06862295 -0.03664492 0.7982263 -0.41082233 -0.57482207 0.031172046 0.26676977 0.32653597 -1.2020564 -0.36127254 -0.043362215 0.6659261 -0.26186913 -0.73546064 0.4875882 0.3488371 -0.36953926 -0.12612419 -0.5237182 0.6207082 0.4537109 1.0487041 -0.03453069 -0.5066838 -0.58114064 -0.14563815 0.626858 0.18092941 0.058163356 -0.36067522 0.2742125 0.63351524 0.39577767 0.018291142 1.0601807 0.5383288 0.09497829 0.7836646 -0.39683497 0.22484033 -1.4285419 -0.08458064 0.22754642 0.42098182 -0.21019386 -0.60135454 -0.27622095 -1.3706542 0.01145327 0.84679866 0.4214568 -0.27921155 -0.73387265 0.29318714 -0.32483393 0.14322956 -0.29578486 -0.56351 0.00455734 0.9391296 -0.6196729 -0.49069688 0.53716505 -0.32928455
7179588686 0.22202556 0.7200487 -0.41118664 -0.24218003 0.39337552 -0.49425405 -0.84426427 -0.42398518 -0.73306954 -0.8668673 0.5681538 0.96296513 -0.27278894 -0.87037957 -0.16460425 -0.33592054 -0.8671619 -0.2768423 -0.31853595 0.7921024 -0.06392874 -0.78994757 -0.1192084 -0.4659964 0.5833639 0.36504656 -0.5841633 0.39041227 -0.5003981 0.3801937 -1.1188704 -0.031048954 0.32194158 0.2914512 -0.4012801 -0.4217399 0.8898906 -0.1634496 -0.8643261 0.06712304 -0.21111976 -0.37369737 0.5624718 0.25605342 0.20886889 0.22289531 -0.81447095 -0.06092912 0.15651499 0.3802981 -0.18179028 0.4873043 -0.5756342 -0.043792948 0.1897167 0.17936061 0.22963038 -1.0551163 -0.22769246 0.8558709 -1.2171856 -0.7685617 0.66939545 -0.6671807
7179588736 0.552698 0.44578353 0.32319632 -0.10754568 0.13735981 -0.9587308 -0.14019659 -0.8011057 -0.9343508 0.42936304 -0.078246646 0.2464112 0.18474835 -0.8066885 0.41164178 0.0991949 -0.34693187 -0.9313544 -1.1019485 0.8035273 0.027581092 -0.5907509 -0.12821917 -0.35864484 -0.38656944 0.12990253 0.04119384 0.4721635 0.1232991 -0.025133343 -0.62976307 0.814327 0.6290613 0.01431357 -0.0107109295 0.80998105 0.6436488 -0.24060473 -0.11967891 0.53277934 -0.40687686 1.2435192 1.5478294 0.5457906 -0.5539907 -0.44058272 -0.48117346 -0.11813143 0.11532775 0.47054267 0.39648777 0.7320575 0.25075224 0.7364941 0.3325247 0.20338908 0.16314575 -0.14762083 0.2161389 0.8122801 -0.7133328 -1.0064886 -0.04515407 -0.36107484
10261555874 -0.19844006 0.2791739 0.4049302 -1.2288907 0.34139985 -1.1136127 0.4737372 -0.8576253 -0.6378422 -0.8120664 -0.12503299 0.09603493 0.25801092 -0.5612224 -0.20103537 0.6431675 -1.2462091 0.46662083 -0.724393 -0.26069674 -0.7809035 -1.1792827 -0.20672537 -0.52348244 -0.4192927 -0.33713877 -0.23034643 0.22798201 -0.108957835 1.13265 -0.25157732 0.5327621 0.051934715 -0.7111819 0.15778975 -0.16919488 0.073000565 0.008156047 -0.18094897 0.11778001 -0.32697996 0.7786621 0.1183385 0.4862847 0.12668206 0.51140225 -0.867752 -0.36177304 0.88420403 0.6458608 0.16204616 0.38532856 -0.65443283 -0.20303822 -0.21531257 0.523746 -0.2138129 -0.7388368 -0.44593513 0.73301643 -0.72559875 -0.7951896 1.0904815 0.23235223
10281308877 -0.10727049 -0.3523939 1.423139 -0.14317907 0.26516056 -0.7181418 -0.45775655 -0.32429722 -0.975694 -0.59006166 0.63435924 0.08913908 -0.12938902 0.2326874 -0.15182896 0.48051208 -0.21715946 0.03202882 0.54308873 0.2785434 0.1590752 0.18390922 -0.45206556 -0.49992958 -0.9656415 0.5931492 -0.27927944 1.0469633 -0.031506058 -0.8538076 -0.0150959315 0.35275286 1.2316113 -0.7250957 0.24766731 -0.2271139 0.15317741 0.07938085 0.21577516 -0.2595344 -0.1563396 0.63615453 0.8159026 0.64236283 -0.034597024 0.5865338 -1.07003 -0.41667402 0.23292325 -0.030836452 0.7621434 -0.91774017 0.5742742 -0.03756506 0.18800904 0.79509234 -0.06790943 -0.35839695 -0.13944171 0.24585505 -1.2454543 -0.6406028 -0.16488224 -0.3136876
3326353510 0.57644683 -0.24926402 0.5351546 0.017748011 0.57504046 -1.0731381 0.20459618 -0.58722115 -0.7297044 -0.4697092 0.3596136 0.24077946 0.32983458 -0.86590606 0.9105184 0.41110688 -0.3060929 -0.06033005 -0.9653048 0.74371886 -0.05600247 0.24806961 0.043358546 -0.26097763 0.6839411 0.27226663 0.014063385 0.11125249 -0.16909 0.034071203 -0.585685 0.49006546 0.5785071 -0.040210184 -0.3742074 0.12671855 0.6320944 -0.36350283 -0.18728223 1.3758461 -0.123027585 0.45064837 1.2710855 0.67579293 0.91756475 -0.085570626 -0.76929814 -0.21533829 0.2666018 0.417327 0.5486477 0.36916882 -0.30415896 0.7133137 1.0467333 0.829737 -0.034361064 -0.43434644 0.5218066 0.47707152 -0.46508792 -0.9109909 0.30509084 -1.0221771
5388224270 0.94545996 -0.3732177 -0.17790802 -0.6342201 1.0931075 -0.88908654 -0.32642305 -0.17491865 -0.457387 0.081389144 0.67610836 0.91114175 -0.34653252 -0.29797155 0.47451058 0.24852917 -0.8939676 -0.66474825 0.010817968 -0.05540121 0.5996451 -0.15297869 0.039749973 -0.6138033 -0.0907913 -0.58055 0.090351604 0.3657055 0.46811098 0.26660678 -0.1670567 -0.5666879 0.5370241 -0.25694254 0.94152796 0.5032297 0.25209138 0.08393245 -0.66161394 0.7836672 -0.69135624 0.25601432 -0.3636539 -0.1901955 0.7096625 -0.34554097 0.050466567 -0.2280406 -0.29196873 -0.12315769 0.93623894 0.015744142 -0.10532372 0.13727266 -0.28196248 0.368573 -0.5100592 -0.44662666 -0.76394016 0.55861735 -0.9247403 -0.32601142 0.67152286 -0.4383808
1361121381 0.24490672 -0.13295253 1.0082662 0.29524392 0.14770404 -0.06640328 -0.113388166 -0.3260126 -0.3797179 -0.38577476 0.73285615 -0.25207058 0.83405143 -0.46498114 0.2559502 -0.062232323 -1.0703748 -0.79952407 -0.6968516 0.34111902 -0.16431694 -0.3145618 -0.19014768 -0.42438912 -0.49443507 -0.16108264 -1.482649 1.3323619 -0.034916632 0.0048039514 -0.12991634 0.83096594 0.5724165 0.7948977 0.7607918 0.32629627 0.22586603 0.39547843 -0.9796998 0.17489463 0.73300064 -0.009429024 0.22028485 0.34271792 -0.26153532 -0.7054979 -0.25396383 -0.55062884 -0.4849002 -0.20168856 0.62451696 -0.46223155 -0.20188439 -0.4894764 -0.407455 0.078660585 -0.1986882 -0.20163378 0.4674904 0.69292164 -0.27653897 -1.3097765 -0.00346554 -0.37197247
536362862 0.08452132 0.73050976 0.10682363 0.049579788 0.045969505 -0.6595867 -0.33324286 -0.47148666 -0.8664262 0.56882715 0.75346226 -0.53245556 -0.19385368 -0.33296657 0.3999686 0.6222616 -0.36934114 -0.012713069 -0.021564655 0.28110924 0.35580474 -0.11244049 -0.25879884 -1.0029694 -0.27516812 -0.92912275 -0.43652624 0.91248864 -0.18660696 -0.6878811 -0.28906843 0.36569676 -0.28699854 -1.0277078 -0.22524135 -0.2524667 -0.17753026 0.13691351 -0.4367887 0.23685586 0.3727508 0.51901543 1.0537149 0.11325416 -0.18129453 -0.22213274 -0.30543298 -0.10483111 -0.8246069 0.83525085 1.3496332 1.2968546 -0.43699822 -0.41943413 0.3146099 0.9806343 1.1126081 -0.5959508 -0.590692 0.55339074 -0.5110273 0.12554513 0.40207836 -1.0802335
10295648348 0.3680318 -0.35100815 -0.19823107 1.4405011 -0.30976886 -0.10103845 0.36462367 -0.5469351 -0.2890681 -0.3073973 0.47177982 0.21067777 0.2337538 -0.69948125 0.33876798 1.2460699 -0.4934217 -0.32513475 -0.12171806 -0.17669977 0.18771449 0.12809803 -0.30527812 -1.9782841 -0.344364 0.14266269 -0.26443282 0.62344784 -0.19789635 0.56352913 -0.29690138 0.100538224 0.97456944 -0.59745485 0.6169515 0.087311395 0.38238984 0.9085378 -0.32485345 0.6050272 0.03885452 -0.00026912222 0.5691942 0.21629854 -0.33437952 -0.6268525 0.18150896 -0.24579337 0.54676235 -0.009902237 0.38869146 -0.2791817 0.2240159 -0.2009251 -0.39568436 0.81253487 0.3729905 -0.18428499 -0.35955653 0.866718 -0.8565339 -0.51625293 1.6736323 -0.018648729
5390733109 0.24045116 0.3181931 0.3227718 -0.22576243 1.1077077 -0.45633647 -0.0655712 -0.48782355 -0.4326071 -0.27954644 -0.32687497 0.5448742 -0.45436203 -0.023290815 0.11551849 0.78254974 -0.34669304 -0.30410933 -0.6616691 1.2451549 0.45070136 -0.29051557 -0.6967934 -1.0935882 -0.12895773 -0.8264243 -0.14474456 0.3685505 -0.2020284 0.33075437 -0.12285075 0.41525167 0.76899695 -0.383562 0.5701759 0.40890527 0.1434176 0.79982406 -0.33833933 0.48550558 -0.4209365 -0.15046328 -0.36340353 1.3148426 0.977644 0.4510153 -0.53988355 -1.0901557 -0.52290535 0.3049391 0.3526598 -0.113641605 0.49631536 0.56086606 -0.18354751 0.9590069 0.10273834 -0.11548214 -0.36933327 0.04285067 -0.21623968 0.549787 0.65379703 -0.68741894
9611821086 0.30198318 0.8666637 0.19626728 0.17523052 0.46303698 -0.58871055 0.1560985 -0.11396889 -1.057039 -0.21289851 -0.04968692 0.009930429 0.25093415 -0.2681807 0.5882981 -0.59381986 -1.2006139 -0.5332225 -0.2773519 0.82176214 0.2668031 0.3975511 -0.8737393 -1.0278726 0.24386635 0.54305995 -0.5957197 0.61307555 1.100514 0.22613755 0.25795072 0.9133064 -0.090860404 -0.9473372 0.6343561 -0.4233518 -0.61004704 0.6274143 -0.56924 -0.83635545 -0.6545784 0.46255314 0.20818076 -0.13615543 0.5139619 -0.04219919 -0.13804847 -0.43547618 0.35095325 -0.33559054 0.8267021 -0.24679054 -0.5389162 -0.50375587 0.009227959 0.5429167 -0.107338645 -0.6970666 -0.011273773 0.5668632 -1.2621512 -0.22481634 0.22460032 0.025100263
10266434371 -0.65651435 -0.35442898 1.2713614 -0.06003536 0.58935106 0.12531476 -0.4992845 -0.6686454 -0.8094833 -0.39977184 0.3269558 -0.1295373 0.5468241 -0.3806038 0.10542877 0.041214336 -1.1281464 0.34757593 0.6026421 0.5248007 0.359852 0.6716203 -0.018270254 -0.54875326 -0.235874 0.9433402 0.039653745 -0.13297512 -0.30038914 -0.23850666 -0.49219513 0.62990916 0.6825025 -0.060149 -0.4669819 0.48664817 -0.14590198 -0.35506865 -0.7239409 0.36560783 -0.2584872 0.8269011 0.30360645 -0.47523248 -0.048947312 -0.61069614 -1.2727014 -0.36225918 1.0985051 0.6323932 0.032331575 0.058374837 -0.2669085 -0.1741357 -0.53025496 0.75867844 -0.59710914 -0.28677943 -0.8004569 0.43855336 -0.90818316 -0.75391877 0.7497659 -0.25610566
7150807343 0.12872346 0.016069299 -0.037016995 -0.4037792 -0.052050263 -0.12635481 0.21989568 -0.47519666 -0.3552649 -0.23200753 1.3332938 0.2601701 0.99363536 -0.5810698 -0.81901133 -0.3170617 -0.7683916 -0.31364495 -0.23008831 1.5130678 -0.07973877 -0.16213998 0.08387562 -1.1816139 -0.596431 0.5802212 0.31202102 -0.14644359 -0.6088834 -0.12613398 0.16844574 0.8249324 0.57396907 0.17045382 0.4569837 -0.4132513 0.67727405 -0.08659561 -0.6601675 1.0413142 0.25246465 0.7933164 -0.16894808 -0.01658571 0.5983983 -0.264483 0.104147926 -1.045233 0.121864 0.23489016 0.16453125 0.28213722 -0.4340307 -0.788946 0.16249442 0.833112 0.76891047 -0.3736413 0.059750594 0.5468972 -0.35206002 -0.34787598 0.16938867 -0.36802077
6296458763 -0.0019244024 0.016735777 -0.23997827 -0.17659764 0.12824441 -0.07187503 0.14274734 -1.1355783 -1.1411846 -0.48965314 0.68702585 -0.1517734 -0.27590525 -0.06881393 -0.6874117 0.2867966 -0.5570593 -0.3183054 0.111155964 0.041233353 0.416937 0.21975902 -1.3167008 -0.47599488 -0.06916463 -0.9177965 -1.0326849 -0.22972499 -0.6445296 -0.08484368 0.1513033 0.33120492 0.56253755 -0.7969382 0.43751612 -0.9360932 -0.060143273 0.5354017 -1.0065498 -0.10481374 0.008368717 0.38849506 0.018399222 -0.22722845 0.08148579 0.124016546 -0.34721348 -0.76941246 0.03791721 0.63845694 1.5822283 0.3835518 -0.47974035 0.35329983 0.0073442166 0.27248457 0.29870817 -0.5048661 -0.9900371 1.1077785 -0.18784331 -0.015703285 0.9144689 -0.71801144
10282833382 0.27922198 -0.060475755 0.25112435 0.56246614 0.5718751 -1.1933334 -0.6696199 -0.47461757 -0.5004219 -0.12195037 0.4302067 0.78896 -0.107389845 -0.1344997 0.94797444 0.07190569 0.229885 0.2580419 -0.034226686 -0.33473432 0.13199373 0.8164642 -0.7723009 -1.3354363 -0.6329338 0.51250684 -0.26112327 0.5562696 -0.7583959 0.3750513 -0.24929157 -0.3834492 0.2623093 0.21151958 0.023201311 0.29451102 0.6279171 0.63985574 -0.9359522 -0.042491246 0.10169483 0.84275323 0.18455234 -0.14861663 -0.44810817 0.11399687 0.47719002 -0.45466477 0.48447084 -0.20292509 -0.344988 0.30721465 -0.2634936 0.52713954 0.50004655 0.87754935 0.41173068 -0.3777431 -0.16307591 0.70681024 -0.76006794 -0.1138778 0.32135555 -1.4248139
9630910087 0.2116236 0.49239522 0.0011404611 -0.24887346 0.3437685 -0.7341081 0.29875344 -0.5176354 -0.47725412 -0.12307706 -0.13795587 0.6737169 0.7233742 -0.6882551 0.11804334 -0.2629023 -0.28240135 0.38837788 -0.036069717 -0.21797454 0.01342118 -0.03166491 -1.2378683 -1.0321375 -1.305051 0.5467026 -0.09159964 0.15669626 -0.9773788 1.0991194 -0.68620694 0.38545895 -0.25315315 -0.539414 0.3916245 0.4219274 -0.11133046 0.5675008 -0.36064374 0.712032 -0.17671958 0.27388448 0.38604102 0.94544095 0.5445203 -1.0092813 0.05237204 -0.01207484 -0.24484667 0.019876732 0.76692027 0.047314998 -0.1244615 -0.26678842 -0.5194423 -0.2736229 -0.31601852 -0.041238695 -0.9660845 0.8405044 -0.5425657 -0.78906006 -0.21184708 -0.68170357
7179725188 0.018143246 0.50979626 -0.059928272 -0.1987935 0.030148504 -0.586453 0.37722245 -0.7685508 -0.9104205 -0.9113778 0.94718856 -0.22044992 0.31981045 -0.097718015 0.027800668 0.42948663 -0.3218225 -0.58662605 0.2069207 0.19844007 -0.32697204 0.1529659 -0.77600133 -0.8530903 -0.3698147 -0.6980769 -1.3310766 0.07623013 -0.1450389 -0.6055229 0.34835055 0.3811449 -0.13638915 -0.7681159 0.18801114 0.03958636 0.18090288 0.27575973 -0.56737685 0.52420646 0.1452018 0.8427646 0.4568133 0.17965728 0.35146084 0.52173114 0.18529761 -0.8349472 0.33700264 0.47267595 0.8516815 -0.417517 -0.9422666 0.19990353 0.4665021 0.55110246 0.79236346 0.23980933 -1.644255 1.3467247 -0.22181405 -0.059764884 -0.0021436 -0.5098646
10299258507 -0.43430278 0.8098112 0.44597426 -0.19015153 0.29144597 0.008524217 0.69557256 -0.25950888 -0.42870173 -0.1846691 0.09366276 -0.08760849 -0.41157934 -0.9367185 0.17631808 -0.020909822 -0.02141828 -0.3912432 -0.10543513 0.07016528 0.04218215 -0.27908713 -0.28380173 -1.1809194 0.40326145 -0.089044854 -1.0288593 0.5896074 -0.6002543 0.4365694 -0.10973772 -0.099584 0.10852149 -0.43313274 -0.051354267 -0.5021189 0.91108036 -0.33724776 -0.9250744 0.41517907 0.4777195 0.776569 0.5161016 0.46476275 0.67972755 -0.0321237 0.4400756 -1.4554834 -0.66668904 -0.28420833 0.62625474 -0.43932927 0.22621107 0.41576204 0.4429778 0.555524 0.19287673 -0.003354976 -0.26780212 1.259157 -1.310419 0.06082251 0.8229514 -0.30013746
9612266992 -0.047659673 -0.097382076 0.1627974 -0.71825397 -0.07504382 -0.020164266 -0.24553642 -0.30387747 -0.26914918 0.07143143 1.0501665 0.31101346 0.87532455 -0.4111805 -0.6934687 -0.43420112 -0.5696421 -0.08497388 0.19833829 1.3136237 0.088797346 0.268995 -0.057828363 -0.8778337 -0.81187165 0.5289926 0.11403022 -0.0017266443 -0.6923831 0.007978429 0.3136494 1.1320947 0.72059673 0.16195224 0.6476167 -0.20616625 0.17177734 0.3453359 -0.43492392 0.98807055 0.21199784 0.66084105 0.12063026 0.338394 0.29836482 -0.24306981 0.13015404 -0.7758712 -0.2565912 0.25796065 0.041189883 0.125443 -0.55565643 -0.624207 0.28906965 1.5278282 1.0908968 -0.71137434 -0.12424858 0.15853828 -0.51067424 -0.3358745 0.28928286 -0.10910883
10301407437 -0.12141592 0.007821686 0.018218892 -0.27539784 0.5721376 0.3013746 -1.0604916 -0.4910998 -0.073164485 -0.31112418 0.70936435 0.030058842 0.9824828 -0.8589143 0.6162033 0.4524372 -0.75817746 -0.68034434 0.053452484 0.1382529 -0.37742552 -0.15758556 -0.5980678 -0.7130101 -0.7259455 0.5148906 -0.37533826 -0.20730034 0.4141819 -0.54201174 0.40399125 0.44829315 -0.06826951 -0.82851076 0.39560336 0.31780246 0.2038219 0.39558727 -0.6202555 0.49940205 -0.6660326 1.1842457 0.976644 0.5562665 0.24269904 0.2496874 -0.49542537 -1.5567228 -1.0872986 -0.45682484 0.21056044 -0.21727198 -0.31400216 0.17743692 0.33517474 0.52437305 -0.5538881 -0.5117312 -0.28074628 0.40150273 -0.28647515 -0.39502522 -0.43314976 -0.5909521
10287742082 0.35411203 -0.54398364 0.20087235 0.018221838 0.874559 -0.5341805 -0.5027913 -0.70968306 -1.1405425 -0.15105623 0.6066301 0.2075719 -0.22635423 -0.33156672 0.2938182 0.023833985 0.07877267 -0.059535176 -0.3211241 -0.06814613 -0.35094166 0.8823209 -0.2643654 -0.15645309 -0.96738356 1.0152091 0.29309398 0.09512559 -0.7279182 0.29225567 -0.51934206 0.14936924 0.22056499 -0.45589805 0.40404746 0.14560972 -0.10548592 0.6322822 -0.822427 -0.16446212 0.09134922 0.8240369 0.22987649 -0.7706844 0.17607862 0.019623991 0.051972788 -0.9427935 0.46585804 0.46769747 -0.36041126 0.32732838 -0.4744383 -0.3869398 0.31860006 0.75846934 -0.0009940545 0.30284107 -0.060265787 0.19377035 -1.010313 -0.43024078 0.9821573 -1.6648208
9880108369 0.266544 -0.35506812 0.05298736 0.39925095 0.53976434 -0.15186317 -0.60279924 -0.9902768 -1.0956136 -0.0530095 0.6637309 -0.01994056 -0.28235745 -0.39075378 0.26612347 -0.1594919 0.17208345 -0.23162404 0.032023273 -0.4752321 -0.27493504 0.765368 -0.49570197 -0.34459838 -0.6388297 0.80789816 0.44120067 0.27632502 -0.72282743 0.15172127 -0.505735 0.07611866 0.7992151 -0.21136934 0.6097878 -0.06357792 0.19557668 0.5298221 -0.9669907 0.18613024 0.2010194 0.7635476 -0.07386548 -0.7385251 -0.097668566 -0.49729267 0.268942 -0.77179253 0.53380203 0.42738506 -0.37113625 0.23376527 -0.6532876 -0.327834 0.16891803 0.53519255 0.069985196 0.035639346 -0.109392725 0.6193689 -0.8946945 -0.5870852 0.9575531 -1.6504483
7179658719 -0.3870597 0.062286936 -0.306705 -0.32604873 0.08240643 -0.8821771 -0.9235079 -1.0113038 -0.4191139 -0.2778133 0.46533632 -0.25912017 -0.39598787 -0.9904614 -0.11793542 -0.29391068 -0.52539706 -0.8539701 0.17303471 0.46751457 0.07603116 -0.9540879 0.16695154 -0.8038381 -0.09532509 1.0165395 -0.40182677 1.2547445 -0.14819616 0.6833986 0.045959383 0.088936925 -0.46263587 -0.49161017 -0.0023450304 -0.1396432 0.4349866 -0.10608235 -0.12083238 0.20275566 0.6372274 0.12982844 -0.7155974 0.7652833 0.6509958 -0.70819014 -0.23848064 -0.6602308 0.6397878 0.27953696 0.5423537 0.027912421 -0.2602694 -0.06518572 -0.7617066 0.33283418 0.08167082 -1.0701562 0.7004402 0.515329 -0.8691721 -0.15913431 0.6643075 -0.88276696
10296001073 0.36544362 -0.28463045 0.75272185 0.8774742 0.77304393 -1.0756164 -0.13522398 -0.8573312 -0.41162392 -0.589588 0.76649636 0.4001691 0.039108556 -0.61845034 0.72836846 0.59216535 -0.02995416 0.24224335 0.1961441 -0.33534986 -0.44639403 0.35050747 -0.4883111 -1.4424114 0.03041514 0.28528878 -0.4362359 0.49792477 -0.6750237 0.6958031 -0.0083055645 -0.026485141 0.91563475 -0.17720526 -0.059465196 0.41964874 0.37550858 0.5019299 -0.9907727 0.13040791 -0.332588 1.166093 0.3685137 -0.037546832 -0.7871376 -0.063841134 0.479154 0.09496642 0.28227246 -0.09993907 -0.24249832 0.21544163 -0.0522428 0.207079 -0.14171627 0.48418304 0.36277282 -0.5168188 -0.115845755 0.69106686 -0.37052846 -0.18287934 -0.037635658 -1.1012905
1361121398 0.21181744 -0.062905796 0.35586333 0.2587897 0.24270545 -0.28015697 -0.47721213 -0.5260383 0.19351156 0.28205785 0.6528514 -0.66848326 0.30950394 -0.12008901 -0.090061106 0.2707994 -1.2386422 -0.29242215 -0.40355885 0.6951279 -0.068146124 -0.3239548 -0.21599744 -1.2143961 -0.4203057 -0.38936743 -0.16614124 1.0001004 -0.45278072 -0.12744984 -0.6323559 0.46612617 0.48439556 -0.6513311 -0.54789364 -0.32627887 -0.47067967 -0.12320942 0.112724595 0.4321079 0.19365439 0.49457458 0.6497942 0.49697983 0.96749157 -0.28551564 0.4386959 0.0646805 -0.7727473 0.5134298 0.4305033 0.43247047 -0.30672562 -0.0075438973 -0.2013115 1.1371313 -0.0072760964 -0.078246005 -0.24053884 -0.056885317 -1.8767865 -0.8571138 0.21081144 -1.2725525
7179565981 0.02728203 0.060637657 0.28952533 0.35978338 0.3077457 -0.73697907 0.107554965 -0.73209983 -1.0668064 -0.8972762 0.06267157 -0.022062292 0.3477858 0.12719211 1.052609 0.27625203 -1.00922 -0.028402602 -0.7033062 0.90690535 0.4548578 0.90630376 -0.17101938 -0.18934844 0.5031284 -0.1476979 -0.1968157 0.5162711 -0.25481746 0.31354812 -0.34523344 0.76195014 0.5489535 -0.124015525 0.22075279 0.6078862 0.6911683 -0.19327447 0.0520533 0.7405604 0.21286394 0.39159474 0.652774 0.8529578 0.42675537 -0.12918319 -0.5715891 -0.27696952 0.0853811 0.46483746 0.36415714 0.3609967 -0.10399297 -0.30848983 1.418578 0.80440843 0.35176384 0.020826569 0.19418268 1.3026757 -0.635177 -0.62503606 -0.38638112 -0.40918595
5740071606 0.10272594 0.49786112 0.1915271 -0.3178114 0.93373823 -0.9081561 0.06354823 -0.5559784 -0.7776104 -0.2684533 -0.29007146 0.80328226 -0.20448582 -0.049854185 -0.06665023 0.75352925 -0.33453447 -0.3106982 -0.60747373 1.3258971 0.31772766 -0.2959088 -0.55676943 -0.8617537 -0.101038985 -0.70717484 -0.085525654 0.65360934 -0.19546804 0.21311028 -0.036580615 0.6902212 0.9942129 -0.5285541 0.39585534 0.3469408 -0.07147209 0.7616903 -0.5967847 0.5298311 -0.2405037 0.15717375 -0.41458488 1.1546428 1.1681564 0.13894042 -0.79821944 -1.2196522 -0.55566907 0.3222251 0.19638826 -0.34531975 0.4118257 0.48433965 -0.24042213 0.7506787 -0.19038841 0.22460096 -0.31388974 0.13169375 -0.15284863 0.44083998 0.43881202 -0.4727974
7179685058 -0.21331848 0.54804575 -0.32632914 0.006407692 0.24366853 -0.37992927 0.1677476 -0.51127595 -1.0747994 -1.3659387 0.693061 -0.011229969 -0.043423966 -0.22665659 0.16584526 0.43705302 -0.3142342 -0.4205282 -0.16882557 -0.03269942 -0.015047003 0.4286932 -0.63421124 -0.850069 -0.4017271 -1.0729921 -0.8161929 0.19971249 -0.19262189 -0.62611806 0.5282877 0.67123795 0.029355306 -0.4346619 0.314167 0.14469068 -0.0027160272 0.42783242 -0.61168975 0.08554886 0.068824165 0.7260541 -0.10918158 -0.26857647 0.4667143 0.504186 -0.4151222 -0.34140456 0.33604592 0.901631 0.5801525 0.2884504 -0.87278545 -0.059737287 0.12035117 0.5564743 1.091804 0.45933378 -1.073303 1.2728958 -0.07218136 -0.29898947 -0.028704843 -0.73123443
9880108064 -0.13819668 0.49305052 0.72382283 -0.18790384 0.05317656 -0.56055725 0.4261277 -0.87478775 -1.0168523 -0.24552853 0.59724367 -0.4895003 -0.062726274 -0.79721475 0.215047 0.9138126 -0.27508515 0.3835578 0.726392 0.8054688 0.75229615 0.074022345 0.6192661 -0.6576607 -0.88729256 1.1560116 -0.25126833 0.24114846 -0.13295263 0.25381425 -0.41024986 -0.42593247 1.0259687 -0.27199593 0.03498253 1.028859 -0.14313549 0.010609712 -0.7876803 -0.00984497 -0.2020099 0.36774603 0.61767256 0.03375354 1.148879 0.2823041 -0.11569814 -0.73146635 -0.102345 -0.20871559 0.62988096 0.06475739 -0.3153187 0.31195778 -0.017305316 -0.07885814 -0.10901446 -1.372812 -0.3415318 0.38871318 -0.63886714 -0.3188555 0.05724326 -0.28001583
7180458116 -0.57170284 -0.091469534 -0.30631986 -0.23442483 0.85181457 0.14213137 0.38782248 -0.12828526 -0.1005909 -0.9830412 0.96874106 0.074918166 0.26626047 -0.7938387 0.044510916 -0.036043704 -1.0724965 -0.5551047 0.48075384 0.661238 -0.17000422 0.00627508 -0.666654 -0.49589646 -0.35567904 0.31881562 -0.8892092 0.10225008 -0.34183663 -0.09460087 -0.23981458 -0.06975222 -0.43265864 -0.7633901 0.60683537 0.36116594 0.07128363 0.8366822 -0.42333126 0.47898674 0.00044238108 0.399363 1.37459 0.46315864 0.14983426 0.46365985 -0.12808718 -1.1939113 -0.2988208 -0.41369006 0.24364889 0.21290609 -0.84800273 0.69603354 -0.20103233 0.8142823 -0.44900644 0.39855006 -0.28112635 0.58748585 -1.0370396 0.24606666 -0.13527808 -0.6601278
9642608243 0.34932393 0.24324684 1.0428894 -1.3493629 0.59290683 -0.5702374 0.15133177 -0.99814683 -0.6585877 0.12941086 -0.40123025 0.13304536 -0.41830418 0.8413957 0.16318019 -0.14236444 -0.79652244 -0.03284867 0.23289204 0.3209763 -0.5781129 -0.6837141 0.109508485 -0.5385198 -0.9707199 0.023110388 -0.32574606 0.533175 0.2525196 0.3981056 0.51426953 0.47771508 0.3222821 0.2848701 -0.22515118 -0.44553715 1.0556571 0.27257597 -0.7354765 0.24200866 -0.21325558 1.5037824 -0.37426457 0.4834224 0.24688314 -0.0037549096 -0.38872552 -0.56952786 0.48761892 0.6326863 0.47202998 0.16764183 -0.58773184 -0.009791314 -0.072682984 0.3117745 0.27129936 -0.40772158 -0.7408995 0.48630407 -0.6525923 -0.028159015 1.1469873 -0.6862039
9845790718 -0.70899796 -0.11703384 0.5766693 -0.37261832 0.59751004 -0.9389671 -0.6861959 -0.40960357 -0.34381166 -0.37133217 0.6622895 0.93147206 0.7447499 -1.5320098 -0.16261554 0.23547447 -0.07384137 -0.9077293 -0.458699 0.96329504 0.2857705 0.76443166 0.014753543 -1.0575716 -0.25362402 0.46067667 -0.7658963 0.16828814 -1.0944031 0.19199069 -0.05525603 0.64463955 0.10901827 0.112560734 0.5657075 -0.33534837 -0.23293126 -0.045983437 -0.4021276 0.14938779 -0.14885989 0.09704083 -0.113908045 0.7488781 0.1489181 0.11450327 -0.30138984 0.17881995 -0.81049615 -0.20273669 0.16599348 -0.4154213 -1.0081753 -0.25064456 -0.98508394 0.96674496 0.7932013 -0.8224656 0.11367747 -0.16267 -1.1097351 -0.8308971 0.32824612 -0.4388622
12059861212 0.5361715 0.40011954 0.18927433 0.12982729 0.40042806 -0.13197093 -0.07320853 -0.7340174 -0.92015475 -0.67898214 -0.49915412 0.3417842 -0.17739955 -0.14669548 0.29465955 -0.13960797 -0.7394159 -0.25092092 -1.0887357 0.75860924 0.26751548 0.44812146 0.10117457 -0.91107804 -0.18221037 0.03489889 -0.8161506 0.4356621 1.2840116 -0.42798012 0.075631425 0.84070057 -0.0876704 -0.93148375 0.4312996 -0.5954217 -0.27250734 0.39715785 -0.8265601 -0.64978284 0.032888904 0.57661945 -0.17078437 0.3017629 0.51596904 -0.0034889919 -0.3834632 -0.09441339 0.55634457 -0.43098617 0.7558598 -0.21040057 -0.06051465 0.33327624 -0.51539654 0.4809553 0.38736424 -1.2078927 0.38277638 0.42440656 -0.83590055 -0.5962325 0.75544685 -0.7776143
10301347703 -0.77694535 -0.7001842 0.31090087 -0.6584935 0.03687323 -0.099419944 0.31545722 -0.22375225 -0.37376383 -1.6002616 -0.01463445 0.21714757 -0.25496957 -0.6181758 -0.3721345 0.1291948 -1.02751 0.15565103 0.5173255 0.31688827 -0.10512831 0.3844492 -0.8345189 -1.030888 0.3820998 -0.13317399 -0.902143 1.0319434 0.34558418 0.12591557 -0.7162622 -0.18706447 0.9365856 -0.036268953 0.84806436 0.059799027 0.290305 0.04372737 -0.9628675 0.35098556 0.36666942 -0.1354557 -0.41973934 0.46139055 0.4521038 0.68311083 -0.15649392 -0.0041545774 0.5775157 0.23457336 0.4886286 0.2580648 -1.0234468 -0.39936385 0.21475126 1.2964655 0.34792554 -0.26240093 0.02413631 0.28946707 -0.21518 -0.81593007 0.10085151 -1.1030358
7179725200 0.13951021 0.34582418 0.60241175 -0.23253633 0.12651448 -0.25087276 0.9172951 -0.5044359 -0.834435 -0.59086215 0.17454453 -0.4414519 -0.028767744 -0.35828122 -0.7025196 0.07072062 -0.34859237 -0.4917554 0.2531708 0.051498592 -0.0005879923 0.15069872 -0.7287368 -0.7908616 0.21553236 -0.07062111 -1.3747162 -0.15136585 -0.77541876 -0.33343893 -0.09729366 -0.025650483 -0.26387838 -0.49574888 0.34804034 -0.2931821 0.5440681 0.49828887 -0.7358306 0.58338624 0.19923416 0.8942095 0.5819877 0.50051427 0.45389447 0.23180176 0.5436305 -1.3424718 -0.5175666 -0.11656828 0.59791213 -0.51490504 -0.14118291 0.47395363 0.19690973 0.3120476 0.108718865 0.12995866 -0.45588255 0.8749322 -0.9502929 -0.035169672 0.68806106 -0.30284068
5466326131 -0.22598907 -0.013322933 0.46915254 -0.92299867 0.095326684 -0.89291525 0.18745486 -0.7486489 -0.45270357 -0.42018342 -0.13474464 -0.03342809 0.030851342 -0.3192928 -0.3835187 0.30527228 -0.97020394 -0.0405181 -0.24370717 -0.1323307 -0.9321105 -0.71461 -0.22590825 -0.09220164 -0.2998001 -0.29975942 0.030247256 0.60508835 -0.20294589 1.2165972 0.08907094 0.48224008 -0.42420846 -0.6268729 -0.041622568 -0.08249658 0.5890975 -0.24722104 -0.64400953 0.5538187 -0.3073232 1.021613 -0.34420475 0.59768826 -0.26613 0.48051336 -0.35523117 -0.46963295 0.7637016 0.98804253 0.5547717 0.35994488 -0.397971 -0.49666047 -0.5513272 0.29139975 -0.081512064 -0.728475 0.14917251 0.7896141 -0.8265779 -0.6285532 0.91673577 -0.11204002
7179588646 0.19386843 0.1825875 1.0327451 -1.5600123 0.5985286 -0.35438174 0.3773957 -0.8688913 -0.70839536 0.054450523 -0.39108765 0.31448853 -0.56909287 0.4858018 -0.11067341 -0.041688994 -0.81607044 -0.020628385 -0.01602131 0.3186176 -0.51446617 -0.8846575 0.29593644 -0.2935811 -1.188352 0.035084985 -0.517549 0.47531506 0.20720191 0.45315692 0.53518546 0.3193164 0.21723269 0.30944705 -0.11950541 -0.36942747 0.91408044 0.2148159 -0.46719316 0.18078977 -0.27869448 1.1292356 -0.1535076 0.44154605 0.34500214 0.03318609 -0.6084865 -0.8340693 0.46008554 0.5041128 0.4466284 0.13985239 -0.73983073 0.0680534 -0.09317721 0.4692785 0.099215314 -0.64045244 -0.87512445 0.42683914 -0.71165156 -0.053470932 1.0894508 -0.44269124
7179658878 -0.48542058 -0.48450395 0.6017896 -0.75134116 0.018487886 -0.23647915 0.33042893 -0.119842105 -0.40188166 -1.4395249 -0.26153374 0.12474592 -0.37945235 -0.46600986 -0.36199406 0.17447177 -0.9204858 -0.050422408 0.34138787 0.53399885 -0.049419187 0.33051726 -0.7159255 -0.95108175 0.6015054 -0.03417348 -0.7845248 0.74462026 0.30715647 -0.10430603 -0.34230793 -0.11742879 0.85350823 0.1217717 0.5583988 0.1033815 0.28877974 -0.024672538 -1.0317091 0.30633286 0.17993559 -0.08060531 -0.46309438 0.22545505 0.39296952 0.6073729 -0.21336204 -0.5623394 0.5484226 0.3946037 0.40164354 0.2748231 -0.985094 -0.4065754 0.40764976 1.4877259 0.5101862 -0.2090271 0.31190962 0.40156433 -0.2566365 -1.18356 -0.1607318 -1.0089648
5935153192 -0.27476084 -0.08292604 0.9164877 0.30139163 0.33059707 0.3809698 -0.102867864 -0.99793416 -1.2444178 -0.05050705 0.7685674 -0.32928818 0.08467581 -0.5317711 -0.009828901 0.3035694 -0.84132886 0.034236487 0.19036451 -0.09316673 0.07374078 0.82302886 -0.0052862894 0.0066683902 -0.7638467 1.0970407 0.27650568 -0.3907762 -0.028819563 0.04561769 -0.6882785 -0.07708259 0.5873365 -0.24748868 0.14292595 0.31223822 0.12375526 -0.27979502 -0.7284916 0.117321044 -0.11089925 0.5553967 0.0034517278 -0.2730622 0.043573435 -0.5211864 -0.86721003 -0.4546467 0.62788296 0.3944283 -0.20623556 0.04114566 -0.089448355 0.080811836 0.10679807 1.2509719 -0.47057295 -0.16585366 -0.53271455 0.73239523 -1.0570474 -0.4908455 0.90419054 -0.73163366
5538551741 0.32586327 0.017603405 0.18131654 -1.0262803 0.7869278 -0.7331981 -0.25955322 0.15078636 -0.77606153 0.6642542 0.78573936 -0.007784459 -0.3477021 -1.1862876 -0.14920847 0.3182995 -0.0045966296 0.36218852 -0.104854114 0.7767883 -0.31658247 -0.10868918 -0.24354386 -0.1821729 -0.48012614 -0.44071707 -0.713325 1.2121031 -0.19926217 -0.03825544 -0.25103596 1.0119145 0.012436194 -1.0503902 -0.2686636 0.8699602 1.1267093 0.7173639 -1.0799819 0.56819075 -0.18875791 0.7333391 0.52393436 0.23930812 1.0830429 -0.09840988 -0.38367307 -0.38709903 0.31915927 -0.6034558 0.3996398 -0.42993358 -0.47450066 -0.32518095 0.010256569 0.8054178 0.91700685 -0.46567982 0.64567524 0.371529 -0.2729386 -0.5113418 0.4021403 -0.2954499
6296458761 -0.06391205 -0.22100952 -0.13830659 -0.28571054 -0.107946075 -0.3823826 0.16659035 -1.1136976 -0.9529472 -0.6030845 0.7843421 -0.27170432 -0.21077415 -0.26004916 -0.49328333 0.23608282 -0.55721647 -0.49304843 -0.08859429 -0.08864724 0.36160317 0.3271166 -1.1419988 -0.75741667 -0.49860328 -0.9129896 -0.9773155 0.050774585 -0.47894245 -0.33487406 0.27324513 0.56624746 0.29181832 -0.71083236 0.1721494 -0.34770942 -0.106369235 0.6477657 -0.924872 -0.1236181 -0.09855572 0.26676124 -0.02700936 -0.24129036 -0.07210109 0.012611174 -0.31369418 -0.52148396 0.03018896 0.6605384 1.4982963 0.38821286 -0.6628314 0.17236494 0.15012717 0.4021473 0.56641144 -0.44374204 -1.0800315 0.92800593 0.24257624 0.19516717 0.5570842 -0.57171637
7179630163 0.44799742 -0.683363 0.7276182 -0.5268224 -0.34808248 -0.5602795 0.1327829 0.631882 0.10139896 -0.32946178 0.4906654 0.5355576 0.3271231 -0.60151106 0.005347331 0.6176549 -1.0498854 0.050304294 0.109232485 -0.070502624 0.121610686 0.02016921 -0.3437974 -0.34190807 -0.54214174 0.54222673 -0.0681701 1.191317 0.24783191 0.5585503 -0.7346919 0.2591919 -0.6711138 0.37251404 0.11186829 -0.40416357 -0.39947888 0.4787207 -0.017789977 -0.12484726 -0.3139789 1.2048842 -0.04883457 0.11370702 0.2726202 -0.65623766 -0.31682786 -1.6003078 0.13168994 -0.8453861 0.54354197 -0.18248065 -0.053014897 -0.36840546 -0.16600926 1.1083413 0.42393136 -0.56266487 -0.011598732 0.98232836 -0.72663933 -0.0011817332 0.6686447 -0.62793326
10296110219 0.3166571 0.27603024 0.15281127 0.30271053 0.12282825 -0.34032795 -0.34091744 -0.3605587 -0.06064542 0.14229204 0.6749566 -0.853241 0.7497731 0.023061233 0.039239943 0.3203033 -1.3695892 -0.4882324 -0.47999728 0.62826955 0.30999938 -0.35327223 -0.21392497 -0.8762508 -0.43845072 -0.19548807 0.028828446 1.1126354 -0.4494455 -0.19529058 -0.5090281 0.35336885 0.7554621 -0.63780665 -0.3967177 -0.37712756 -0.43230563 -0.2777246 0.079869084 0.55556136 0.20136073 0.35644042 0.5009314 0.6054978 0.4956324 -0.33727732 0.2500107 -0.19082183 -0.75354993 0.5054483 0.41942075 0.6480988 -0.34402463 0.12746853 -0.43294933 1.0602221 -0.23133144 -0.05302753 -0.5778036 0.035498455 -1.9502842 -0.5273941 0.33956307 -1.3268447
7180469570 0.034198128 0.5208375 0.14559785 -0.57531273 0.69516754 -0.44584742 0.31496418 -0.5291592 -0.4277958 -0.14911288 0.13900897 0.8037397 0.6972045 -0.44307613 -0.0759597 -0.5022946 -0.25041315 0.088811524 -0.41318807 -0.21056694 0.011083236 0.47260553 -1.0085057 -1.0870688 -0.936627 0.44820657 -0.10290096 0.2607514 -0.93230945 1.2061278 -0.8932936 0.7166679 -0.28799534 -0.5726942 0.36936703 0.23105758 -0.28150067 0.28999877 -0.75943166 0.35330835 -0.4738683 -0.1786826 0.3680204 0.5088203 0.54310215 -0.821534 -0.32423687 0.04914476 0.04545806 0.41876787 0.5575631 0.33361053 -0.023082498 0.016737716 -1.2255232 -0.27526948 -0.104957506 0.18483084 -0.82778096 1.0422975 -0.80072045 -0.84922576 -0.20657445 -0.88987243
8085649280 -0.2714229 -0.08915575 0.062479004 -0.22508039 0.943898 -0.04108739 -0.043376926 -0.53677195 -0.8978039 -0.55087876 0.50446486 0.5646085 0.5807292 -0.4098005 -0.19867884 0.40487313 0.0791366 0.29761377 0.32218483 0.66316706 0.57718474 0.5513563 -0.5228042 -0.9835373 -0.41638315 0.12278083 -0.56334877 1.0129564 0.58043975 0.12912357 -0.31616908 0.70945936 0.3477703 0.4563458 0.6780371 -0.07027583 -0.31337845 -0.10807515 -0.2978335 -0.11529657 -0.26282996 -0.100080766 0.71230674 0.47899273 -0.86320263 0.31826252 -0.14127311 -0.40880114 0.012710652 0.5736196 0.55121714 -0.3683791 0.77693844 -0.0006673674 0.16019875 -0.27741605 0.6766627 -0.13217139 -0.9415823 0.3449432 -1.7495104 0.0742333 0.27837408 -1.288176
5538555039 0.11595655 0.17613165 0.81598383 -0.26634747 0.8179904 -0.24415916 -0.6786296 0.42932183 -0.6390839 0.6777028 0.31009042 0.37617254 0.87415415 -1.091669 0.707532 0.6855756 0.16936919 0.11229872 -0.29183924 0.47160637 -0.076906316 0.62773645 -0.121698506 -1.022517 0.008076349 0.73607755 -0.22293091 0.6716587 0.24981749 -0.09398436 -0.2066614 -0.14210999 -0.2874634 -1.1182934 0.02381224 0.5980623 0.2628546 0.12871929 -0.36723614 0.5017563 -0.27522275 0.8237201 -0.23164968 1.1261826 -0.017552873 -0.07659607 -0.75251293 -0.42480835 -0.442794 -0.8766207 0.7155102 0.26516673 -0.12876502 0.32394016 0.7961258 -0.3503598 0.9008433 -0.67226297 -1.0252788 0.5726707 -0.96798885 -1.3373417 1.4333544 -1.4826936
7180458445 0.1613698 -0.36942896 0.12104774 -1.1104692 0.7705406 0.30639756 -0.85390264 -0.57832533 -0.22489503 -1.1915679 -0.2882653 -0.12801124 0.4357229 -0.2809939 0.94013435 0.5298 -0.64193285 0.045477986 0.20608962 0.27072588 0.8541685 -0.288115 -0.97172636 -1.1389225 -0.75640094 0.5398215 -0.44639567 0.3142504 0.09022601 0.14571704 -0.31446525 1.0029111 0.39233962 -0.00055124325 0.4467779 -0.35004482 0.19798198 -0.2582216 -0.4852647 1.1748273 -0.004238835 0.28323674 -0.17265457 -0.34354025 -0.3063074 -0.49493837 -0.23055765 -0.24765031 -0.24095456 0.25521636 0.38881013 -0.87876856 -0.21375823 0.6724154 0.08528478 -0.4167518 0.3899029 -1.2248404 0.03245031 0.3091094 -1.1217182 0.25042397 0.8564201 -0.7153718
7180469572 -0.13091345 0.72190285 0.08234581 -0.27796426 0.70584923 -0.54672426 0.01716777 -0.57342064 -0.12206141 -0.6440314 0.077811316 0.759523 0.8321763 -0.9073118 0.31430894 0.06267491 -0.1680503 0.27911383 0.5612135 -0.15200628 -0.20804426 0.121412225 -0.98089087 -1.2222489 -1.4075125 0.61562836 -0.2297918 -0.40584165 -1.1745054 0.78111005 -0.6729571 0.29392642 0.23198752 -0.5681738 0.6164236 -0.066658735 -0.32467765 0.4021497 -0.8784218 0.70741105 0.09367143 -0.0054675196 -0.054319706 0.81937605 0.7604948 -0.6932079 -0.22173803 -0.13387789 -0.27195638 0.17937496 0.75926054 0.11758734 0.5634825 -0.36490595 -0.51991594 -0.2492723 -0.31561673 -0.31664902 -0.9060111 0.29175207 -0.6549611 -0.42132258 0.11155992 -0.81457627
1533685294 -0.38587415 -0.0008525822 -0.11659098 0.39278004 0.17714506 -0.004420694 -0.6820656 0.37669307 -0.24599534 0.31431115 0.48032 -0.27286482 0.94266886 -0.28219151 0.5723587 0.44763592 -0.8447724 0.24412823 0.09478078 0.5771804 0.513622 -0.05898601 0.41956812 -1.1639043 -0.031052079 0.07373549 -0.8386144 0.5847444 -0.12820278 -0.08842507 -0.8609153 -0.16199401 0.42222932 -0.91062593 -0.19469942 0.15686642 0.29935572 -0.12720296 -0.5239863 0.0625307 0.1829592 0.7244758 0.13467209 -0.27029622 0.31485477 -0.9489088 -0.29092976 -1.043196 -0.36305922 0.40388873 1.1532438 1.1666821 -0.08093512 -0.28573132 -0.9369882 0.7594977 0.75928295 -0.15739547 -0.35863364 0.23186767 -0.881193 0.105136946 0.16786706 -1.0776665
2872424923 -0.79996103 -0.34267485 0.8416859 0.03150645 0.20888196 -0.8133574 0.20962647 0.18115135 -0.83433986 0.1398882 0.211407 0.18973738 0.04783637 -0.106086574 0.66615266 0.5064392 -0.6902276 -0.3189622 -0.08528355 -0.35165018 -0.11587297 -0.4415842 0.18398492 -0.49411258 -0.79054207 -0.4723562 0.14342788 -0.43717214 0.7470947 0.25944686 -0.711061 1.3405868 0.5506218 -0.21382673 0.3102602 0.18663955 -0.43417272 -0.2626015 -0.5779221 0.60106784 0.11240744 0.17390363 0.51297057 0.640483 0.25952595 0.29265356 -0.50553304 -0.38235703 -0.31524193 -0.5507815 0.18971063 0.09650526 -0.8527751 -0.004354164 -0.39285496 -0.2755319 0.6771275 -0.18198396 -0.054675803 0.71881825 -0.9643751 0.2626521 0.5941702 -0.96817684
11508918096 0.07456338 0.31956252 0.7005808 -0.7952849 0.2384961 -0.016862623 -0.32151487 -0.8558709 -0.51443297 -0.15697311 0.25358942 0.17967941 0.20315677 -0.6050653 -0.18359293 0.38989517 -1.3535941 0.8365519 -1.3043742 -0.46436325 0.43446404 -0.5648322 -0.15741348 -0.71077853 -0.3857186 0.4394733 0.17269811 0.25459194 -0.58666885 -0.37304822 -0.80231255 0.5363157 0.8634239 0.09409851 0.27418008 0.12534179 -0.28502604 0.51991427 -0.8969788 -0.39040056 0.41196734 1.1089315 -0.5136609 0.59175545 -0.016346576 -0.2564549 0.52938664 -1.0583916 -0.47717366 0.6868778 0.42659044 0.46106276 -0.34559074 0.87694883 0.19477172 -0.20844212 0.42294443 -0.29656243 -0.12857464 0.5923123 -0.48604986 -0.3520124 -0.21904045 -0.8610396
9880108070 -0.5440476 -0.107512884 1.4518087 0.09691682 0.212412 -0.3345068 -0.20902683 -0.56568545 -0.64943177 -0.3510662 0.3436293 -0.27567706 -0.37164697 -0.18296993 -0.45801997 0.29520327 -0.71116906 0.040941205 0.20120236 0.41003767 0.25964496 0.32319987 0.23228489 -0.6776671 -1.1941394 1.0428069 -0.49277687 0.5214526 -0.6173282 0.16769597 -0.45221812 0.29571953 0.9632673 -0.8078144 0.20611699 1.0311774 0.43578404 -0.4026571 -0.18355417 -0.09905204 -0.37396565 0.26388362 0.3354501 0.06135612 0.35361245 0.59895897 -0.73546124 -0.4216991 0.18965788 -0.1636698 0.6954628 -0.9848049 -0.25365612 0.57609284 -0.13911645 0.45545766 -0.54610103 -0.16048047 -0.0645674 0.6040727 -0.9889287 -1.0457547 0.3467405 -0.29992306
8085649376 0.22289297 -0.03429212 -0.10495793 -0.5784511 0.29787043 -0.23833482 -0.43472672 -0.28001434 -0.23982593 -0.79332507 -0.3708451 0.38914648 0.3879694 -0.47455996 0.33695745 0.05014087 -0.59563226 0.35215428 0.6795511 -0.3249759 0.317708 -0.43130445 -1.2338338 -1.2365222 -1.2427381 0.8504749 -0.3098349 -0.62085456 -0.44375372 0.63358575 0.016349358 0.4647052 0.27565885 -0.35961488 0.58130914 0.69920695 -0.12094706 -0.06748418 -0.38636458 0.21316111 -0.34033403 0.3209883 -0.21460894 0.631349 -0.12195357 -1.0775572 -0.3097862 -0.1905322 -0.34969398 0.2120402 0.82331127 -0.34330347 0.071285 0.062158328 -0.74025 -0.60853666 0.64260006 -0.60690564 -0.55919194 0.7967127 -0.37432548 -0.51727116 0.42590466 -0.4997898
471954453 0.42283335 1.1230372 0.85374683 0.17956717 0.30672744 -0.3364185 -0.46900123 -0.8516028 -0.32237467 -0.53532535 -0.21238795 0.7791103 1.118956 -0.2059899 0.20273249 -0.049735796 -0.9497653 -0.10526774 -0.57116 -0.09307172 -0.07935479 0.04685153 0.5181417 -0.67334944 -0.42018506 -0.27433485 -0.7961812 0.30919608 -0.46898988 0.72048897 -0.43276268 0.5209283 0.72238624 -0.2978179 0.03781406 0.7201874 0.24313551 0.51061845 -0.5846801 0.09812057 -0.86611867 0.5402845 -0.4004856 -0.26872805 0.41620523 -0.16920002 0.06870558 -0.99104935 -0.5367733 0.71541005 0.36300796 -0.09437 -1.4685094 0.04988908 -0.054615293 -0.04035299 0.029268857 -0.44348302 -0.23478436 -0.1786383 -0.22896646 -0.26025665 0.38202265 -1.2146764
7179685053 -0.5085937 0.31513128 -0.15328406 -0.22158723 0.45508546 -0.21108994 -0.21588252 -0.6967292 -0.933547 -1.3699002 0.34973544 -0.31684375 -0.14039837 -0.032567233 0.43886098 0.46358103 -0.048264667 -0.067437865 -0.20371814 0.32835823 0.3554557 0.37635723 -0.27806616 -0.70246273 -0.6531076 -1.0775588 -0.51223546 0.628049 -0.39873946 -0.115242235 0.45986596 0.5888813 0.5423247 -0.304973 0.0948739 0.45030203 -0.0043633073 0.14991978 -0.7145665 -0.2864787 0.44288626 0.63625336 0.40990874 0.1695709 0.38132012 0.3152594 -0.33687705 -0.25493792 0.32949832 0.6684153 0.39247993 0.49499625 -0.67260945 -0.47425258 0.12601617 0.4722597 1.3640971 0.15892126 -0.39549297 1.6803545 -0.1829219 -0.5014893 -0.2046404 -0.2966515
7179630146 0.0043609776 -0.23280524 0.30897337 -0.80203986 -0.33232498 -1.0093462 0.15319517 -0.84470475 -0.4905794 0.010604862 0.07803627 -0.07855982 -0.18698892 0.3010103 -0.074358396 0.40883973 -0.881955 -0.1450626 -0.42659053 -0.24682902 -0.6491076 -0.68955535 -0.2012863 -0.059011146 -0.14294407 -0.093670696 -0.51127845 0.74113744 -0.21402 0.99841857 -0.017890928 0.3662175 -0.7962794 -0.29222792 0.039167482 0.23767528 0.4590975 -0.03180471 -0.58896387 0.94614077 -0.31953573 1.0951234 -0.4404783 -0.08514653 -0.26325667 0.1767017 -0.118353814 -0.72899854 0.6392331 0.3737383 0.46111566 0.521669 -0.3352966 -0.58803785 -0.8407976 0.26868322 0.1521881 -0.774703 0.16776004 0.39724678 -0.97507983 -0.801188 0.9623479 -0.73408127
7179565982 -0.11880726 0.11237193 0.46269932 0.38647106 0.2777652 -0.48214832 0.09297006 -0.3443798 -0.74847937 -1.0621254 -0.12581427 0.12602521 0.22424743 -0.07767211 0.8742097 0.03951073 -0.792949 0.10924268 -0.469278 0.9558871 0.34313822 1.0430399 -0.25324968 -0.1984653 0.14330491 -0.29823253 -0.41222632 0.50421107 -0.21702531 -0.0061434666 -0.45423064 0.51619923 0.44096407 -0.17033494 0.1302557 0.7881474 0.42810816 -0.18243133 -0.24237981 0.7651488 0.073898345 0.30328667 0.22423662 0.6799299 0.5090708 -0.03377998 -0.5816558 -0.32884327 0.18831427 0.6514612 0.56713456 0.47205403 0.199101 -0.6722952 1.2203665 0.74475265 0.6091533 0.010312736 0.111747876 1.4713459 -0.63044196 -0.5801083 -0.333898 -0.079593845
12726972450 0.1167774 -0.20728415 0.3230692 -0.82598615 0.65075916 0.15710446 -0.8645575 -0.6026529 -0.3715693 -0.98291147 -0.4302938 0.072633915 0.09236172 -0.5533869 0.7816453 0.5287532 -0.26340652 0.27529025 -0.0862902 0.55433244 0.83684254 -0.022221304 -1.1724689 -1.0368322 -0.7394257 0.121210665 -0.49927068 0.79099464 0.032733552 0.20904104 -0.59667885 0.96978295 0.45269847 0.039059937 0.658619 -0.53932977 0.115671724 -0.29358372 -0.5240932 1.0525903 0.1958224 0.3817566 -0.066475675 -0.44071692 -0.56147087 -0.1541931 0.054747734 -0.2795472 -0.19447924 0.49184313 0.38856673 -1.1036067 -0.5452099 0.33712456 0.09469255 -0.55739236 0.2223583 -1.2166523 -0.21451083 0.23767655 -1.3539028 0.32733384 0.91607475 -0.70389634
7180458255 -0.5364613 -0.14433452 -0.015323871 -0.11499976 0.40892035 -0.36321244 -0.13140379 -0.47414622 -0.5518279 -0.34004533 -0.23507346 0.9599425 -0.42387676 -1.0674864 0.3165707 0.30284107 -0.74355507 -0.3314485 0.40574208 0.6086453 -0.33420873 -0.1260968 -0.93374 -0.04595347 0.042551704 0.022389578 -0.96915585 -0.14244863 -0.2892062 0.20525518 -0.6413568 0.33867022 -0.21661353 -0.49264047 0.92034143 0.4594781 0.10806256 -0.5879895 -0.45372415 0.7906513 -0.4410814 0.50522846 0.55769837 0.5595881 0.8520598 -1.0719417 -0.0251974 -0.6568502 0.39477882 0.2976028 -0.4028209 -0.62245804 0.6163895 -0.75114214 0.136582 0.21881638 0.09018628 -1.0369575 -0.8397966 -0.00029508132 -0.3377439 -0.24609786 1.0065564 -1.2388461
3326356066 0.01842359 -0.19051144 0.058760554 0.015012104 0.37942854 -0.85869646 0.46536353 -0.4887334 -0.83522046 -0.40248308 -0.25716013 0.100769415 -0.0059373262 -0.103370026 0.5476399 0.36544967 -0.88229114 -0.7304573 -0.9069714 1.1681796 0.23230602 0.868358 0.2595443 -0.3130903 -0.38496768 0.11630576 -0.16237272 0.3481917 0.31627572 0.16915026 -0.18848439 0.8573767 0.18880582 0.3068763 -0.21080145 0.56907696 0.7746649 0.055141658 -0.51899517 0.85707486 0.18709426 0.6667344 1.0833004 0.77767885 0.5412083 -0.43325332 -0.8702868 -0.26613674 0.19296901 0.40150732 0.6499237 0.053671345 -0.012347371 0.06436169 1.4089441 0.067828335 -0.1313011 -0.48256156 -0.3366567 0.9924114 -1.0431019 -0.82752585 -0.58981276 -0.4695698
8014205603 -0.29691222 -0.062023137 -0.5637346 -0.35715103 -0.55302304 -0.43472964 0.042347144 -0.12591487 0.10750047 0.17314288 0.47151673 0.7523742 0.1269373 -0.4582874 0.85506475 0.6811804 -0.31095183 0.079808526 -0.5468681 0.4614378 0.22921485 -0.5846885 -0.77871764 -0.33558726 -0.58794105 0.42704514 -0.22864646 1.7391676 -0.59887713 -0.095484205 0.41010824 0.3107088 0.56864166 -0.39036462 0.5885599 0.35612565 0.34735045 -0.21473703 -0.5613525 0.56271416 -0.7520625 1.1922271 -0.058049552 0.47498438 1.4664135 0.29075804 -0.79126304 -0.7524642 -0.114730455 0.595325 0.54846615 -0.18459769 -0.43043277 0.22239159 -0.37906718 -0.06379312 0.3717478 0.3361935 -0.14974074 0.35101113 -0.24035409 -0.31479973 0.27811903 -0.3419305
10301407428 -0.4429774 0.14954089 -0.1125955 -0.18330185 0.7621641 0.29534593 -0.7781259 -0.29772875 -0.16998146 -0.11940214 0.7813076 0.028922139 0.7899286 -0.54739106 0.6027969 0.44448298 -0.7135272 -0.91448367 0.35934755 0.31614733 -0.25428334 0.115333565 -0.57299393 -0.53704876 -0.48544538 0.47480318 -0.2615741 -0.3110061 0.1015824 -0.42482868 0.35181656 0.39776504 -0.09904934 -0.79498655 0.51914513 0.4409397 0.14636727 0.38661975 -0.38922134 0.5236843 -0.58664984 1.1991495 1.1629864 0.6274386 0.3000554 0.5071394 -0.42615765 -1.4250871 -0.87282413 -0.096573696 0.13574386 -0.06879809 -0.42887205 0.4522837 0.36241707 0.46023387 -0.604336 -0.21017934 -0.3577665 0.5581411 -0.63286847 -0.23872888 -0.33900765 -0.631168
9642608244 0.40678304 0.24257345 1.1026474 -1.0044551 0.5639128 -0.25506282 0.4195042 -0.63206404 -0.81058556 0.052958827 -0.36637238 -0.08191918 -0.6924551 0.70438105 0.09010924 -0.16559817 -0.66646653 -0.18684298 -0.064125665 0.44682553 -0.6020631 -0.7622661 0.11164691 -0.4087324 -0.9560497 0.05228428 -0.11645726 0.80634445 -0.06395663 0.6921307 0.5947913 0.27818602 -0.011786421 0.12906973 -0.11162736 -0.3690009 0.66518116 0.20805942 -0.67723656 0.48382774 -0.2796912 1.3419542 -0.39204642 0.45001695 0.17705859 0.15133354 -0.5057914 -0.48126 0.51798123 0.52880275 0.41438615 0.27227625 -0.48853135 -0.07614595 -0.16484736 0.5052335 0.16211754 -0.7132679 -0.8056184 0.50916 -0.5620353 -0.25826922 1.1019918 -0.6058892
5935081748 0.49102142 -0.2756268 0.21635887 1.0967685 -0.19686413 -0.18785465 -0.3690445 -1.0915892 -1.050762 -0.37510702 0.48940095 0.1009074 -0.24704838 -0.8552281 -0.14128236 0.55990356 -0.036391865 -0.051611315 -0.067239635 -0.11363245 -0.8781062 0.33419433 0.2489526 -0.9992091 -0.49373868 0.8036557 -0.15332179 0.28942582 0.090396106 0.14601886 -0.028356045 -0.18617702 1.357606 -0.37392697 0.42678493 0.5005172 0.29581088 0.5019665 -0.39794934 0.32860312 0.21857156 0.5536484 0.33316767 -0.06964972 -0.27901626 -0.3869629 -0.05267441 -0.35318232 0.47135994 -0.13295843 0.018813413 0.09277786 -0.18245266 0.38732597 -0.27388477 0.89689684 0.0904105 -0.71934026 -0.33740684 0.77491784 -0.4531466 0.25633875 0.64538854 -0.783228
12777137773 0.21461889 1.0984397 0.9776006 -0.51632893 0.38935974 -0.1476961 -0.06315528 -0.99903053 0.19976611 -0.6814526 0.38342828 0.76617545 0.15670326 0.17577049 -0.16154078 -0.24583124 -0.28107217 -0.034886602 -0.32407707 -0.20801687 0.4206291 -0.70859605 0.31543976 -0.9704143 -0.4488832 -0.22871359 -0.31032464 0.64866304 -0.3254039 0.17323247 -0.8432982 0.900208 0.2206615 -0.47658464 0.6350771 0.94545245 -0.9731396 0.083155446 -0.37917328 0.067130275 -0.15247871 0.7974085 -0.24722719 -0.37581423 0.22949207 0.020761162 0.19197078 -1.0947304 -0.76555073 0.37242967 -0.123541184 -0.117230564 -0.72164327 0.16215464 0.10104631 0.6671242 0.17198123 -0.5930589 0.061430637 0.7607881 -0.1319123 -0.701572 0.46356267 -0.975546
10825615534 0.35852185 0.120919906 0.5179437 1.0495397 -0.023321612 -0.76571727 -0.5034678 -0.5115329 -0.8418389 0.24725918 0.5632868 0.33617035 -0.036730666 -0.6513362 0.09058901 0.7375909 -0.1314987 0.034126043 -0.27531108 -0.26928917 -0.5879475 0.40328714 -0.6903923 -1.8411555 -0.0020235209 0.20371616 -0.22918034 0.6949826 -0.31193727 0.12268473 0.0939065 -0.15476306 1.2386726 0.120394744 0.6640886 0.004939876 0.17283022 -0.25074616 -1.0095085 -0.030552914 -0.33387455 0.55344903 0.4599062 0.03707304 -0.25659603 -0.5080016 0.14685552 -0.031487565 0.5245635 -0.42150283 -0.43194443 0.061209545 -0.5037714 -0.017831897 -0.004104474 0.41472182 0.5358297 -0.41250077 0.009352247 0.5389691 -0.10955761 -0.17868459 0.85070604 -0.832611
9880108377 0.09064485 0.11111833 0.42599294 0.5711149 0.29213405 0.14818168 -0.39561278 -1.2492551 -1.1348075 -0.11505229 0.65014505 -0.01420061 -0.3732807 -1.0206912 0.03955302 0.45947087 -0.40838894 0.16609444 0.079611376 0.08565287 -0.53056955 1.0038531 0.26630554 -0.524106 -1.1449242 0.8417519 0.044129893 -0.017394133 -0.0471522 0.18350808 -0.34376496 -0.03459762 0.71681184 -0.6348242 0.1767754 0.095797 -0.47714427 0.24649814 -0.58030915 0.4626095 0.055538964 0.57497704 0.17562518 -0.5376355 0.19192798 0.12025775 -0.18564369 -0.21730876 0.004076511 0.6165679 -0.6566647 0.010189675 -0.14746168 -0.2414289 -0.11830759 0.81506866 -0.21418422 -0.11159854 -0.056625277 0.8955429 -0.8240373 -0.42635587 1.0638031 -0.9353799
10287694679 0.4262097 0.13527769 0.3373958 -0.81130314 0.10543108 -0.43946555 -0.16453528 -0.48916706 -0.5329475 0.13065675 0.92899066 0.9001371 0.34169814 -0.4181949 1.1539438 0.07019257 -0.5227175 0.8297262 0.506169 -0.15264595 -0.24669178 -0.65822303 -0.57374847 -1.0089229 -0.22550324 0.56235665 -0.13896199 0.67443705 0.3456513 -0.4096604 -0.51541466 0.36883846 0.29568145 -0.3391825 0.19363075 0.66851914 1.0346369 0.12517165 -0.46415898 0.94584095 0.15838239 -0.7752902 0.36814573 1.2572738 0.12917241 -0.55571866 -0.8612103 -1.4492896 1.048383 -0.0729487 0.8513529 0.1609713 0.08706206 0.60751694 -0.83595574 1.011855 0.47295445 -0.064224795 0.28983825 0.45059365 -1.4507394 -0.65084314 -0.327415 -0.19567335
5538551798 -0.009199413 -0.274949 0.04441863 -0.19409019 1.2387327 -0.43432942 -0.33280024 -0.20383 -0.8448993 -0.48934314 0.7920441 0.64653265 0.30595866 -0.18951349 -0.17398624 0.72291833 0.23043874 0.2550194 0.08366084 0.63563484 0.23585504 0.6245552 -0.28783652 -0.8987576 0.13367951 0.48236912 -0.3736332 1.0259176 1.0072806 0.20730156 -0.18872534 0.84791654 0.36270136 0.14588767 0.86608756 0.1670655 -0.5971123 0.0077116312 -0.30457088 -0.22174227 -0.4755972 0.3976203 0.8702616 0.54738516 -0.8861611 -0.04167008 -0.9659052 -0.46269006 0.15264587 0.69639695 0.55237556 0.11659034 1.1211804 0.08581489 0.018840728 0.2174701 0.6497 -0.17577994 -0.8124264 0.661381 -1.3138812 -0.037479497 0.12772572 -1.225948
5446951552 0.3422276 0.15057476 1.1521393 -0.807889 0.54357326 -0.47902846 0.38582808 -0.22911815 -0.40422723 -0.0795548 -0.21875645 0.12673827 -0.87960786 0.10907172 0.30508247 -0.6951304 -0.47497147 -0.55182564 -0.40532893 0.34404474 0.097088985 -0.12146647 -0.26278844 -0.061274618 -0.728988 -0.05193089 0.12580293 0.7126257 -0.37949032 0.5066462 0.9305951 0.595399 -0.04750628 -0.38687187 -0.025870044 0.17986977 0.94059026 -0.10821039 -0.7161132 1.1109775 0.068658136 1.5562187 -0.07053763 0.53471476 -0.098078445 0.06943478 -0.34022176 -0.66028875 0.6231564 0.39295214 0.113013305 -0.08551734 -0.18448247 -0.6365746 -0.91398185 0.779491 -0.057240166 -0.28150555 -0.6162488 0.510546 -0.6770257 -0.16938561 0.44009513 -0.60567385
7179588643 -0.020398697 0.40727496 0.44152254 -1.1223679 0.29924193 -1.031057 0.023253797 -0.9034177 -0.58959144 -0.8678477 -0.31744576 0.2550032 0.066211216 -0.62687194 -0.089851886 0.47485024 -1.0708354 0.46373734 -0.48165727 0.055081468 -0.66828173 -1.2906437 0.11799206 -0.7247287 -0.7658695 -0.27027577 -0.21396852 0.36113745 0.20112298 0.7806419 -0.3198627 0.1314667 0.11483057 -0.44488987 -0.26967016 -0.25065622 0.4037371 0.047670867 -0.12820111 -0.29950297 -0.1091544 0.8532936 0.13738501 0.633431 0.32040256 0.23673263 -0.82375467 -0.38160318 0.89771754 0.6272984 0.45497227 0.23518483 -0.7324346 0.001734743 0.07824535 0.201347 -0.23424536 -0.5369562 -0.6438626 0.8389028 -0.6557003 -0.3338559 1.358428 0.3832568
11847965756 0.48210162 0.18390216 0.28010908 -0.8130272 0.16291907 0.2639607 -0.6031111 0.05335661 -0.3150228 -0.876404 -0.051597975 0.069040604 0.41774136 -1.0178989 0.21931365 0.68392706 -0.5446231 0.3199596 0.3568563 0.5877333 0.3957766 -0.64998263 -0.79245603 -1.1577942 -0.6481229 -0.01402692 -0.4383048 0.2197709 -0.1658553 -0.027118908 0.28030497 0.88700557 0.189772 -0.28682494 0.36617723 -0.13475569 -0.07353451 -0.13995153 -0.29957655 0.40748256 -0.51287794 0.37705842 -0.90027666 -0.6393083 -0.8929986 -0.37381455 -0.12319714 -0.5503003 -0.028678548 0.7208036 0.13335915 -0.6286372 -0.1331184 0.05104052 -0.6115835 -0.4414488 0.9520721 -1.0083119 -0.73447835 0.85387784 -1.2698187 -0.19933367 0.8352884 -0.97723585
1176652262 -0.4111947 0.55440354 0.07279069 -1.0682021 -0.10708853 -0.14807166 -0.18244398 -0.6636445 -0.48050016 0.67498845 0.047794364 -0.13852787 0.06715916 -0.97045165 1.0143316 -0.18996528 -0.63578624 -0.34753087 0.9212996 -0.01471525 0.143266 -0.493935 -0.49889418 -1.4488742 0.3240563 0.037319936 -0.44343546 0.8331176 -0.4127262 -0.32947963 -0.1701715 0.29666707 0.71863055 -0.037919544 0.77791965 0.5018925 0.12549761 0.651256 -0.80194926 0.91046214 0.3949532 0.85398895 0.1118696 0.75550765 -0.17051637 0.39178827 0.84510136 -0.14485085 0.12744801 0.23788092 0.34110165 0.18865956 -1.0732217 -0.5178738 -0.31861535 0.18868713 -0.3100497 -0.6397077 -0.11845367 -0.21980283 -0.9524277 -0.4048241 0.35507402 -0.5561179
5538551780 -0.4034388 0.3552123 1.0723358 -0.4377122 0.116041906 0.31486747 -0.7992926 0.39101094 -0.10990901 -0.5795528 0.3743411 0.15732941 -0.41588214 -0.15504353 0.1410449 -0.35995933 -0.72898453 0.13673654 0.54477197 -0.0689036 0.99158174 -0.033022452 -1.0664629 -1.1537368 -0.3999577 -0.48973143 -0.38217065 0.8904509 -0.33526233 -0.7601027 -0.27002135 -0.44315857 0.85123533 0.20226929 0.76621985 0.3040868 0.881698 -0.17684348 -0.96290463 -0.4917722 1.1857548 0.6387818 0.27375114 0.10493193 0.7076127 -0.20984821 -1.1089762 -0.10208616 -0.651136 1.4350319 0.6355078 -0.38062805 -0.33544692 0.00712675 -0.8992023 0.9427648 0.1789855 -0.3397223 -0.9498285 0.9089622 -0.7803503 0.19899651 1.3003511 -1.3146803
9641914655 -0.28198755 -0.08735418 1.4010497 0.059678536 0.10124212 -0.36905235 -0.28393036 -0.72440624 -0.8323588 -0.29304352 0.6739996 -0.37954253 -0.3133818 -0.08305662 -0.3120948 0.28777212 -0.53764534 0.09677341 0.4965015 0.5099509 0.21070403 0.40918317 0.30162862 -0.71366715 -0.8705002 1.1395115 -0.27188087 0.2417746 -0.49136472 -0.25947508 -0.6691286 0.3205201 0.9772208 -0.7122025 0.065907635 0.68076646 0.3337864 -0.21149951 -0.14250322 -0.16136931 -0.3510272 0.30446303 0.30250385 0.14175348 0.23155299 0.47585928 -0.79704016 -0.27620676 0.37591177 -0.010593131 0.5339506 -0.6958241 0.0151300905 0.29357967 -0.24139842 0.49054164 -0.74949485 -0.54856336 -0.19786988 0.31806022 -0.87316453 -0.7722706 0.3089727 -0.35794967
7180485070 -0.09854188 -0.13325185 0.8289407 -0.42975628 -0.51646405 0.33629924 0.14022797 0.1394776 -1.1142875 -0.50336 0.014475465 0.5023711 -0.27350762 -0.1723466 0.31052348 0.46450073 -0.10909725 -0.106797084 -0.44474834 0.64956194 0.6116233 1.0200334 -0.26258254 -0.5948959 -0.447415 -0.22061692 0.5248444 0.30830455 0.27191815 -0.28258482 0.46467683 0.7854672 0.19837928 -0.32951763 1.0090876 0.6158587 0.48434377 0.7355491 -0.24556841 0.18287612 -1.0968785 0.18489636 0.5490424 0.50193036 -0.30472764 -0.84406984 -0.098845586 -1.2712615 0.033603016 0.7608995 0.40146226 -0.24633472 -0.88896316 0.26024857 -0.55264705 0.25773826 -0.14192674 -0.4493814 0.29055604 0.8905344 -0.34090608 -0.5746114 0.5732899 -0.24123575
5538555499 0.014957632 0.7427539 0.55600107 -0.7121721 0.49233985 -0.8068505 0.012226092 -0.8987195 -0.8600273 0.3835689 0.90383446 0.46141955 0.25570932 -0.79039806 0.5135897 -0.15084974 -0.17752565 -0.7893962 0.09179879 0.72436184 0.3716525 -0.33249414 -0.23746577 -0.7487231 0.040461272 0.95182854 0.5172257 1.1137053 0.47055766 -0.45123103 -0.46566656 0.5355491 -0.07525312 -0.13550176 -0.37282228 -0.29270375 0.44565636 0.8320543 -1.276601 -0.46309668 -0.24613796 0.5991733 0.28575778 0.9535494 -0.0030813692 0.22494681 0.0331732 -1.0127071 0.48681414 0.439814 0.5178868 0.8644235 -0.7267995 -0.5322984 -0.8076044 0.85290205 0.73952883 -0.043308087 -0.44557524 -0.5535202 -0.06902062 -1.3300643 0.44220307 -0.9576332
7179630121 -0.017712172 -0.4940144 0.2677388 -0.8422561 0.13920419 -0.48262173 -0.27886152 0.34295586 -0.4701335 -0.24315636 0.36947235 0.012686148 0.048499055 -0.5138834 -0.12057873 0.39043418 -1.2824427 0.16880487 -0.25540206 -0.3954847 0.08562393 0.17587279 -0.86576164 -0.40738586 -0.7147455 0.5811134 0.029955529 1.1783283 0.28108135 0.15957376 -0.74996024 -0.22775124 -0.54435647 0.67462444 0.47033823 0.0009011684 -0.19796784 0.06856043 0.042530373 0.28511214 0.009557735 1.1706281 0.15414432 -0.43388987 0.21210974 -0.043076944 -0.40936315 -1.098326 -0.11851327 -0.9749285 0.99991584 -0.27523592 -0.16249506 -0.7450197 -0.25441334 1.1634415 0.58547735 -0.3818429 -0.40001827 0.51923347 -0.74304163 -0.6017248 0.8272389 -0.33038655
6296458760 -0.038134824 -0.066633075 -0.31995776 -0.15734366 0.033723883 -0.3596552 0.24277087 -1.0526966 -1.154505 -0.63934106 0.6107607 -0.2002404 -0.28452817 -0.32923177 -0.22146703 0.3279277 -0.2626766 -0.46491358 -0.033267956 0.030199025 0.062252034 0.19791359 -0.8768681 -0.9172142 -0.5678229 -1.026937 -0.9316903 0.3377365 -0.41858667 -0.53267395 0.37200737 0.5975573 -0.2792285 -0.722195 0.15190835 0.04299052 0.0113796815 0.612488 -0.8513044 0.15291508 0.20608938 0.35303974 0.18500198 -0.07514203 -0.0040189773 0.024045732 -0.04177776 -0.40934104 -0.1324557 0.767379 1.1216317 0.37166193 -0.8414784 0.19070663 0.27820802 0.55759776 0.8290126 -0.12624583 -0.95419693 0.9664169 0.31400993 -0.08597775 0.12362669 -0.51625973
7179725221 -0.564767 -0.25932273 -0.05523452 0.2994705 0.023521528 -0.6983729 -0.055328574 -0.99662894 -1.2168345 0.04827561 0.3858792 -0.0012805426 -0.24558058 -0.3990536 0.16808239 0.32931852 -0.08877321 0.44701388 0.123054 0.017092986 0.46623838 -0.09869915 -0.16275592 -1.1667007 -0.31975427 -0.3744522 -0.50592536 0.5507143 0.0880121 -0.66672647 0.3130754 0.43206847 -0.8648291 -0.89317703 0.26798058 -0.41443136 0.15443422 0.39495656 -0.8060568 0.5146666 0.3908677 0.018736638 0.97026163 0.19104004 -0.14227274 -0.41213065 -0.6690921 -0.04214565 -0.82126933 0.68628967 1.0742313 0.8808885 -0.7085479 -0.14689875 0.031760026 0.6804554 0.6003414 -0.64971495 -0.6245955 0.6182084 -0.41324723 -0.19642918 0.39843723 -0.4574086
7179588647 0.44569537 0.40878633 1.2994567 -0.8785787 0.55305433 0.20456614 0.4040106 -0.62773234 -0.88282937 0.01106704 -0.3735466 -0.09644045 -0.7321798 0.51264393 0.319531 -0.21927342 -0.93647194 -0.19567412 0.02005634 0.5473748 -0.2199307 -0.70760995 0.16578701 -0.43778047 -0.925834 0.13675159 -0.19523372 0.6510263 -0.104811825 0.37251985 0.6874397 0.22620611 -0.12902077 0.2971522 0.028472159 -0.39064744 0.85603285 -0.08016625 -0.71032345 0.3821272 -0.48819056 1.2822859 -0.27659437 0.5303316 0.21429083 0.1332445 -0.1902481 -0.41866055 0.58666164 0.6673999 0.7417683 0.16849215 -0.0081709 -0.25777647 -0.16898978 0.84401786 0.4041399 -0.5635249 -0.64838827 0.6487047 -0.7163205 -0.008302387 0.6921009 -0.8111224
7179685074 -0.44235355 -0.34830093 -0.41930413 -0.3119275 0.48242998 -0.23763648 -0.3947378 -0.9414783 -0.9389415 -0.761965 0.31626534 -0.29429483 -0.24279834 -0.10367844 -0.19094688 0.3759151 -0.09048501 -0.03945017 -0.22578306 0.27012473 0.20402326 -0.073431104 -0.7759463 -1.0120144 -0.7899577 -1.0760999 -0.525604 0.5954541 -0.7527529 -0.19503598 0.3582897 0.63937694 0.22477548 -0.73413813 -0.009707868 0.10421256 -0.5275025 0.27719116 -0.66379577 -0.06754242 0.635534 0.34719267 0.8204814 0.1220808 0.16157556 -0.09128891 -0.17045474 -0.10934069 0.005794964 0.4696461 1.0335271 0.703361 -0.7405161 -0.12070288 0.1944107 0.60741127 1.1138293 -0.12600514 -0.34781706 1.3507023 -0.23780996 -0.048095487 -0.0373965 -0.30861014
5811962768 0.22091402 1.0059954 -0.35722482 -0.6737737 -0.27194548 0.18753433 0.17415792 -0.49876907 -1.1134702 -0.6742996 1.1083666 -0.18056607 -0.8538915 0.11029227 -0.14183274 0.87558335 -1.2655661 -0.15811704 0.08424137 0.15184464 0.40127173 0.73603374 -0.8690152 -0.09865984 -0.85537624 0.5212693 -0.051590867 1.1481299 0.5428805 0.5913164 0.10406619 0.8897309 0.00039474256 -0.7213189 -0.13418926 -0.22517575 0.5346608 0.4029447 -0.9835966 0.593982 -0.8155012 0.38985234 0.16272712 0.8792539 1.0852283 -0.5494864 -0.15309978 -1.4831172 -0.47955817 0.20568933 -0.8115056 0.7592222 -0.65874904 -0.13863483 0.33539596 0.26642305 0.009531727 -0.5761387 -0.87121016 0.33357203 -1.1130173 -0.124987096 0.41307503 -0.829463
7990587615 -0.12589166 0.42357472 0.70893073 -0.11812171 0.06769732 -0.48956653 -0.35418862 -0.96250474 0.04955048 -0.9432825 0.2584695 0.00862326 -0.41006973 0.30945528 0.81153345 -0.21587743 -0.82569724 -0.38028282 0.28142855 0.48438546 -0.21573703 0.14621618 -0.23725203 -0.45178887 -1.013066 0.29478395 0.091140285 0.2830179 0.39720348 -0.5373106 -0.8629527 0.67541814 0.30616397 0.46063024 0.51942146 0.43812087 0.29969972 0.53432095 -0.111852854 0.6522029 -0.2636545 -0.44290525 0.5799026 0.7038528 -0.20483875 -0.3955225 0.51687 -0.30103633 -0.22652109 0.6654816 0.61872244 1.039319 0.31792232 -0.46932724 -0.56474334 0.20311935 0.45892832 -1.6519262 0.2295013 0.42980492 -0.9636756 -0.61701053 0.025576098 -1.0421808
7180458119 -0.6416716 -0.11231153 -0.48907837 0.015923081 0.73075074 0.16740175 -0.43141842 -0.65828896 -0.115947135 -0.5687133 1.2168278 0.05528729 0.41780174 -0.7210999 -0.14141075 0.9078619 -0.5296358 -1.2320085 0.5391607 0.5262021 0.39034545 -0.4951261 -0.48447183 -0.29961362 0.07159224 0.0939345 0.060577694 -0.35593724 0.5073332 0.2660415 0.43298084 0.78982896 0.4762501 -0.40113968 0.6100325 0.43668562 -0.07879771 0.8729709 -0.51899713 0.38750678 -0.45309603 0.43260452 1.4364098 0.8367591 0.039534688 0.39960083 -0.5317141 -0.88591945 0.24769269 0.09580767 0.30883592 0.009065602 -0.6946645 0.47067875 -0.310041 0.58919746 -0.48837647 -0.38101265 0.0899312 -0.024210054 -0.8755781 -0.89396477 0.012488107 -0.9555409
914043420 0.28373334 0.3744165 -0.029493239 -0.96308655 0.1310327 -1.0118911 -0.33269274 -0.09897833 0.19385786 -0.3817941 0.25287402 0.89032143 -0.41093007 -0.41532364 0.7164423 0.30008358 -1.6539888 -0.45328522 0.53231615 -0.36056435 0.06959079 1.1804818 0.38248128 -0.980414 -0.8655518 -0.21284582 -0.42034766 -0.018181603 -0.02937592 -0.39615253 0.031960767 0.19157101 0.17454624 -0.15127434 -0.1977971 -0.07390934 -0.53840977 0.37302348 -0.91189307 0.30769217 0.23358095 1.6468532 1.1080424 -0.007970897 -0.1944983 -0.5973735 -0.8002844 -0.2694354 0.47016498 0.4176404 1.105901 0.041953836 -0.78067 0.33353508 0.04885022 1.1282606 0.23753758 -0.4239959 0.050259557 -0.20208049 -1.042197 -0.12643835 -0.26324484 -0.9537968
8085649273 -0.0045654494 0.17089836 0.82331884 0.32559878 -0.3963421 0.026151985 -0.15621723 -1.0527828 -1.22036 -0.43591046 0.58621454 -0.3765853 -0.054879427 -0.688021 -0.10484964 0.6308135 0.0910605 -0.1250147 0.33574682 0.44432592 -0.14867914 0.4168838 0.4898787 -0.74018216 -0.9028619 1.3640784 -0.26744366 0.03722697 0.06652844 0.0061709285 -0.0683741 -0.087565094 1.0879847 -0.5905678 0.1626579 0.87258667 0.11395439 -0.40002388 -0.3393226 0.0061881207 -0.07998408 0.31215546 0.32564527 -0.45570546 0.5473604 -0.016357653 -0.51101637 -0.28574714 0.23762676 0.0044656997 0.1394442 0.08273872 -0.30341706 0.18930174 -0.18752798 0.7135587 -0.1247141 -0.71903 -0.5960952 0.5770146 -0.61639977 -0.28157312 0.7091388 -0.6011338
7179725218 -0.44743797 -0.19563054 0.22288394 0.17180382 -0.11066829 -0.5580716 0.18604378 -0.8098562 -1.0318786 0.06850643 0.4088108 -0.06896114 0.12524629 -0.39262322 0.047901783 0.12677579 -0.38982603 0.5529655 0.12770526 -0.10070352 0.43349656 0.0762854 -0.14745463 -1.2228329 -0.35019222 -0.25265256 -0.6163939 0.46480483 0.2836959 -0.5355441 0.39052954 0.27402696 -0.9652828 -0.7800369 0.6735573 -0.29558 0.25518385 0.5147127 -1.0081751 0.7028338 0.22686167 0.094057724 0.64792556 0.028838407 -0.20133702 -0.51405877 -0.7362399 -0.32603246 -1.0979882 0.7336858 0.5882686 0.96329767 -0.3223549 -0.13086627 -0.054115552 0.81506306 0.47653311 -0.7650375 -0.66322505 0.5461838 -0.18956926 -0.08637335 0.24083723 -0.4502141
3326356072 0.29103923 -0.428698 0.16470294 -0.057504043 0.26392996 -0.72165734 0.50254536 -0.6592409 -0.98924524 -0.13865386 -0.26829094 0.062040165 0.15227172 -0.22127026 0.5256675 0.33504197 -0.7264821 -0.6571088 -1.2163059 0.936213 0.35704172 0.419927 0.17950267 -0.3156215 -0.35203457 0.07978114 -0.27061948 0.29787427 0.3254374 0.041707084 -0.26945126 0.7326089 0.27201563 0.23404415 -0.10010931 0.62542367 0.7535618 -0.1741304 -0.53469557 0.7903511 0.16114019 0.74520653 1.1248021 0.75475305 0.37998718 -0.3189068 -0.7833852 -0.5770471 0.30301008 0.3524996 0.52811 0.16064367 0.18408461 0.3123557 1.4514424 -0.015295022 -0.070932984 -0.48429945 -0.28580496 0.9603179 -0.9524733 -0.9188474 -0.44272733 -0.4682182
11030490971 0.13781135 -0.016102534 0.052056383 0.8480663 -0.15150301 -0.45146382 0.3541181 0.1453654 0.058180623 0.47882837 0.78690684 0.13682966 0.2871359 -0.68954366 -0.28073168 1.1820798 -0.93615526 -0.3134311 -0.21623513 -0.06619518 -0.09404812 0.07017156 -0.90340585 -1.8893616 -0.1031391 -0.4061489 0.23601341 0.83310276 -0.36172435 0.20215905 -0.12660576 -0.09236003 0.77536196 -0.6222292 0.60185 -0.016627856 0.5835197 0.69780916 -0.64150834 0.11356611 -0.2869497 0.14286338 0.76564705 0.33544615 -0.26573673 -0.5344179 -0.17195527 -0.3197564 0.5592747 -0.0067624915 0.03443833 -0.44172046 0.13512325 -0.45363906 -0.15153687 0.576639 0.61175764 -0.2604785 -0.3818034 0.41944554 -0.6929101 -0.5015793 1.5450649 -0.14083892
10299258506 -0.08890862 0.57604647 0.54832774 -0.1991356 0.14398049 -0.31344122 0.95689607 -0.27746174 -0.6565475 -0.47998437 0.34961858 -0.27843723 -0.05864379 -0.6786121 0.009641974 -0.009175834 -0.09088924 -0.17493695 0.056163374 0.11312274 0.16143662 -0.17864318 -0.45965973 -0.9890481 0.3702393 -0.066650584 -1.091216 0.45847914 -0.4902874 0.14426512 -0.12546243 -0.26739573 -0.13022836 -0.44704974 0.3412836 -0.58834034 0.94720906 -0.14723808 -0.8000973 0.43997297 0.4696355 0.9570593 0.3613431 0.46449262 0.82172906 0.008795256 0.68609667 -1.3402 -0.69002557 -0.16593896 0.52586174 -0.40268338 0.12736851 0.5597665 0.41369802 0.44874656 0.061610863 0.06366164 -0.40360412 0.9553489 -1.2027525 -0.18816935 0.74879813 -0.10840699
7180469571 0.054617926 0.3033435 -0.02390792 -0.32903975 0.53529835 -0.49033934 0.25494137 -0.5176581 -0.43562505 -0.26444176 0.041704547 0.86116576 0.6872542 -0.77396363 -0.0042003663 -0.4353809 -0.22674875 0.20445552 -0.050461594 -0.42982584 -0.16566846 0.23449433 -1.0615664 -1.2173729 -1.1840764 0.39836052 -0.22505304 -0.039532032 -0.9172686 1.0925844 -0.9091204 0.7081139 -0.18456401 -0.53701943 0.7798197 0.30916864 -0.24241218 0.2639195 -0.67165905 0.40315104 -0.4197684 -0.08788216 0.10500801 0.6346631 0.56603914 -0.83772314 -0.22179699 -0.24716483 0.06939305 0.43274084 0.6516469 0.24369009 0.058884777 0.0729637 -1.1312275 -0.42060712 0.020263998 0.015689958 -0.99934584 0.98085105 -0.6958686 -0.8432461 -0.22729346 -0.61513215
